{"learner":{"attributes":{"scikit_learn":"{\"_estimator_type\": \"classifier\"}"},"feature_names":["sent_tx_count","sent_total_amount","sent_avg_amount","sent_max_amount","sent_std_amount","sent_avg_zscore","sent_cross_border_ratio","sent_currency_mismatch_ratio","sent_avg_country_risk","sent_avg_velocity","sent_max_velocity","sent_unique_receivers","sent_weekend_ratio","sent_above_1M_count","sent_above_10M_count","recv_tx_count","recv_total_amount","recv_avg_amount","recv_max_amount","recv_avg_zscore","recv_cross_border_ratio","recv_currency_mismatch_ratio","recv_avg_country_risk","recv_unique_senders","recv_above_1M_count","recv_above_10M_count","total_tx_count","total_volume","net_flow","total_unique_counterparties","is_person","pep_flag","sanctions_hit","account_age_days","institution_ADBL","institution_BOKL","institution_CBL","institution_CITIZENS","institution_EBL","institution_HBL","institution_KUMARI","institution_LAXMI","institution_MBL","institution_MEGA","institution_NABIL","institution_NCC","institution_NIMB","institution_PCBL","institution_PRABHU","institution_PRIME","institution_RBBL","institution_SANIMA","institution_SBL","institution_SUNRISE","acct_type_CURRENT","acct_type_FIXED","acct_type_LOAN","acct_type_NOSTRO","acct_type_REMIT","acct_type_SAVINGS","risk_grade_RISK-HIGH","risk_grade_RISK-LOW","risk_grade_RISK-MED","city_Bhairahawa","city_Bharatpur","city_Biratnagar","city_Birgunj","city_Butwal","city_Dharan","city_Ghorahi","city_Hetauda","city_Itahari","city_Janakpur","city_Kathmandu","city_Lalitpur","city_Nepalgunj","city_Pokhara","city_Tulsipur"],"feature_types":["float","float","float","float","float","float","float","float","float","float","float","float","float","float","float","float","float","float","float","float","float","float","float","float","float","float","float","float","float","float","int","int","int","int","i","i","i","i","i","i","i","i","i","i","i","i","i","i","i","i","i","i","i","i","i","i","i","i","i","i","i","i","i","i","i","i","i","i","i","i","i","i","i","i","i","i","i","i"],"gradient_booster":{"model":{"cats":{"enc":[],"feature_segments":[],"sorted_idx":[]},"gbtree_model_param":{"num_parallel_tree":"1","num_trees":"300"},"iteration_indptr":[0,1,2,3,4,5,6,7,8,9,10,11,12,13,14,15,16,17,18,19,20,21,22,23,24,25,26,27,28,29,30,31,32,33,34,35,36,37,38,39,40,41,42,43,44,45,46,47,48,49,50,51,52,53,54,55,56,57,58,59,60,61,62,63,64,65,66,67,68,69,70,71,72,73,74,75,76,77,78,79,80,81,82,83,84,85,86,87,88,89,90,91,92,93,94,95,96,97,98,99,100,101,102,103,104,105,106,107,108,109,110,111,112,113,114,115,116,117,118,119,120,121,122,123,124,125,126,127,128,129,130,131,132,133,134,135,136,137,138,139,140,141,142,143,144,145,146,147,148,149,150,151,152,153,154,155,156,157,158,159,160,161,162,163,164,165,166,167,168,169,170,171,172,173,174,175,176,177,178,179,180,181,182,183,184,185,186,187,188,189,190,191,192,193,194,195,196,197,198,199,200,201,202,203,204,205,206,207,208,209,210,211,212,213,214,215,216,217,218,219,220,221,222,223,224,225,226,227,228,229,230,231,232,233,234,235,236,237,238,239,240,241,242,243,244,245,246,247,248,249,250,251,252,253,254,255,256,257,258,259,260,261,262,263,264,265,266,267,268,269,270,271,272,273,274,275,276,277,278,279,280,281,282,283,284,285,286,287,288,289,290,291,292,293,294,295,296,297,298,299,300],"tree_info":[0,0,0,0,0,0,0,0,0,0,0,0,0,0,0,0,0,0,0,0,0,0,0,0,0,0,0,0,0,0,0,0,0,0,0,0,0,0,0,0,0,0,0,0,0,0,0,0,0,0,0,0,0,0,0,0,0,0,0,0,0,0,0,0,0,0,0,0,0,0,0,0,0,0,0,0,0,0,0,0,0,0,0,0,0,0,0,0,0,0,0,0,0,0,0,0,0,0,0,0,0,0,0,0,0,0,0,0,0,0,0,0,0,0,0,0,0,0,0,0,0,0,0,0,0,0,0,0,0,0,0,0,0,0,0,0,0,0,0,0,0,0,0,0,0,0,0,0,0,0,0,0,0,0,0,0,0,0,0,0,0,0,0,0,0,0,0,0,0,0,0,0,0,0,0,0,0,0,0,0,0,0,0,0,0,0,0,0,0,0,0,0,0,0,0,0,0,0,0,0,0,0,0,0,0,0,0,0,0,0,0,0,0,0,0,0,0,0,0,0,0,0,0,0,0,0,0,0,0,0,0,0,0,0,0,0,0,0,0,0,0,0,0,0,0,0,0,0,0,0,0,0,0,0,0,0,0,0,0,0,0,0,0,0,0,0,0,0,0,0,0,0,0,0,0,0,0,0,0,0,0,0,0,0,0,0,0,0,0,0,0,0,0,0,0,0,0,0,0,0],"trees":[{"base_weights":[3.6757276E-3,1.192251E0,-1.9841601E0,-2.089401E-1,1.6415025E0,-4.8138958E-1,-9.9984415E-2,-1.5646826E0,1.6359832E0,1.1637716E0,1.9578706E0,-9.825327E-2,1.4382023E0,-1.6478525E0,1.8888888E0,9.949377E-2,4.6666667E-1,3.8207486E-1,1.6699681E0,1.9611782E0,7.1428575E-2,-1.2592592E0,1.8709677E0,-8.761384E-2,-1.7043741E-2,-2.5E-2,9.716981E-2,-6.373429E-2,7.14002E-2,-4.355619E-3,8.0055915E-2,8.4581606E-2,-9.2E-2,9.811915E-2,-5.714286E-2,8.709677E-2,-8.62069E-2,-8.260869E-2,2.5E-2,9.6E-2,1.1111111E-2],"categories":[],"categories_nodes":[],"categories_segments":[],"categories_sizes":[],"default_left":[0,0,0,0,0,0,0,0,0,0,0,0,0,0,0,0,0,0,0,0,0,0,0,0,0,0,0,0,0,0,0,0,0,0,0,0,0,0,0,0,0],"id":0,"left_children":[1,3,5,7,9,11,-1,13,15,17,19,-1,21,23,25,-1,27,29,31,33,35,37,39,-1,-1,-1,-1,-1,-1,-1,-1,-1,-1,-1,-1,-1,-1,-1,-1,-1,-1],"loss_changes":[6.1388066E4,1.0235805E4,2.2590625E2,9.87871E3,1.8586211E3,2.8976743E2,0E0,6.5699854E2,6.913789E2,1.9413198E3,4.606836E1,0E0,5.4303917E1,3.028667E2,8.003143E0,0E0,6.546908E2,1.1041646E3,2.2959961E2,2.9890625E1,4.499642E1,5.491948E0,2.7059631E0,0E0,0E0,0E0,0E0,0E0,0E0,0E0,0E0,0E0,0E0,0E0,0E0,0E0,0E0,0E0,0E0,0E0,0E0],"parents":[2147483647,0,0,1,1,2,2,3,3,4,4,5,5,7,7,8,8,9,9,10,10,12,12,13,13,14,14,16,16,17,17,18,18,19,19,20,20,21,21,22,22],"right_children":[2,4,6,8,10,12,-1,14,16,18,20,-1,22,24,26,-1,28,30,32,34,36,38,40,-1,-1,-1,-1,-1,-1,-1,-1,-1,-1,-1,-1,-1,-1,-1,-1,-1,-1],"split_conditions":[1.16E2,3.479425E-3,1.45E2,1.9735454E-4,4.358291E-3,1.6605859E6,-9.9984415E-2,1.0016263E0,1E0,1E0,1.3E1,-9.825327E-2,6.5424736E-3,1E0,1.0018752E0,9.949377E-2,1E0,1E0,1.2E1,1E0,2E-1,1E0,9.6484006E5,-8.761384E-2,-1.7043741E-2,-2.5E-2,9.716981E-2,-6.373429E-2,7.14002E-2,-4.355619E-3,8.0055915E-2,8.4581606E-2,-9.2E-2,9.811915E-2,-5.714286E-2,8.709677E-2,-8.62069E-2,-8.260869E-2,2.5E-2,9.6E-2,1.1111111E-2],"split_indices":[33,0,33,20,24,3,0,23,21,60,15,0,15,36,24,0,60,66,0,7,8,53,4,0,0,0,0,0,0,0,0,0,0,0,0,0,0,0,0,0,0],"split_type":[0,0,0,0,0,0,0,0,0,0,0,0,0,0,0,0,0,0,0,0,0,0,0,0,0,0,0,0,0,0,0,0,0,0,0,0,0,0,0,0,0],"sum_hessian":[2.598025E4,1.6259E4,9.72125E3,3.9475E3,1.23115E4,9.975E1,9.6215E3,2.2755E3,1.672E3,4.90675E3,7.40475E3,5.625E1,4.35E1,2.2225E3,5.3E1,1.283E3,3.89E2,1.92925E3,2.9775E3,7.39175E3,1.3E1,5.75E0,3.775E1,2.05775E3,1.6475E2,1E0,5.2E1,1.3825E2,2.5075E2,1.39375E3,5.355E2,2.95975E3,1.775E1,7.38925E3,2.5E0,6.75E0,6.25E0,4.75E0,1E0,3.65E1,1.25E0],"tree_param":{"num_deleted":"0","num_feature":"78","num_nodes":"41","size_leaf_vector":"1"}},{"base_weights":[1.9678005E-3,1.1359184E0,-1.8888763E0,-1.7473449E-1,1.5586439E0,-4.5761943E-1,-9.522753E-2,-1.4834994E0,1.5559536E0,9.39394E-1,1.7930664E0,-1.6945114E0,1.6023104E0,-1.5635588E0,1.747417E0,9.481039E-2,4.385026E-1,3.3020893E-1,1.7483547E0,1.5607219E0,1.8820194E0,-9.390624E-2,9.7376555E-1,-7.074571E-2,9.290642E-2,-9.336325E-2,-3.7186008E-2,-6.175202E-2,9.268678E-2,-5.8473196E-2,6.762498E-2,-2.6653288E-2,6.425085E-2,8.962548E-2,-9.637861E-2,5.729968E-2,9.014031E-2,8.5108034E-2,9.477541E-2,7.084074E-2,-9.864206E-3],"categories":[],"categories_nodes":[],"categories_segments":[],"categories_sizes":[],"default_left":[0,0,0,0,0,0,0,0,0,0,0,0,0,0,0,0,0,0,0,0,0,0,0,0,0,0,0,0,0,0,0,0,0,0,0,0,0,0,0,0,0],"id":1,"left_children":[1,3,5,7,9,11,-1,13,15,17,19,21,23,25,27,-1,29,31,33,35,37,-1,39,-1,-1,-1,-1,-1,-1,-1,-1,-1,-1,-1,-1,-1,-1,-1,-1,-1,-1],"loss_changes":[5.5802164E4,9.014059E3,2.1801172E2,8.991177E3,1.7840781E3,2.753596E2,0E0,5.873667E2,6.4906885E2,1.6651858E3,1.814707E2,3.482399E1,3.401339E1,5.4790137E2,1.9768661E1,0E0,5.898613E2,1.5910101E3,2.3909131E2,2.4652881E2,1.24140625E1,0E0,2.8708372E0,0E0,0E0,0E0,0E0,0E0,0E0,0E0,0E0,0E0,0E0,0E0,0E0,0E0,0E0,0E0,0E0,0E0,0E0],"parents":[2147483647,0,0,1,1,2,2,3,3,4,4,5,5,7,7,8,8,9,9,10,10,11,11,12,12,13,13,14,14,16,16,17,17,18,18,19,19,20,20,22,22],"right_children":[2,4,6,8,10,12,-1,14,16,18,20,22,24,26,28,-1,30,32,34,36,38,-1,40,-1,-1,-1,-1,-1,-1,-1,-1,-1,-1,-1,-1,-1,-1,-1,-1,-1,-1],"split_conditions":[1.16E2,3.479425E-3,1.45E2,1.9735454E-4,1E0,1.7535202E6,-9.522753E-2,1.0016263E0,1E0,4.358291E-3,3.296E1,5.0443254E0,6.5424736E-3,1E0,1E0,9.481039E-2,1E0,1E0,3.1114498E6,1E0,-1.4502996E-1,-9.390624E-2,9.2599056E5,-7.074571E-2,9.290642E-2,-9.336325E-2,-3.7186008E-2,-6.175202E-2,9.268678E-2,-5.8473196E-2,6.762498E-2,-2.6653288E-2,6.425085E-2,8.962548E-2,-9.637861E-2,5.729968E-2,9.014031E-2,8.5108034E-2,9.477541E-2,7.084074E-2,-9.864206E-3],"split_indices":[33,0,33,20,60,2,0,23,21,24,16,11,15,30,60,0,60,30,28,30,19,0,2,0,0,0,0,0,0,0,0,0,0,0,0,0,0,0,0,0,0],"split_type":[0,0,0,0,0,0,0,0,0,0,0,0,0,0,0,0,0,0,0,0,0,0,0,0,0,0,0,0,0,0,0,0,0,0,0,0,0,0,0,0,0],"sum_hessian":[2.6023627E4,1.6268005E4,9.755621E3,3.9674832E3,1.2300521E4,1.0600707E2,9.649614E3,2.259197E3,1.7082863E3,3.3791553E3,8.921366E3,6.634649E1,3.9660583E1,2.2050732E3,5.4123795E1,1.3090078E3,3.9927838E2,1.9283934E3,1.4507618E3,2.475065E3,6.4463013E3,6.2351963E1,3.9945245E0,2.7457008E0,3.6914883E1,1.608086E3,5.9698706E2,1.4975652E0,5.2626232E1,1.446031E2,2.5467528E2,1.0129723E3,9.1542114E2,1.4340485E3,1.671328E1,9.1435913E2,1.5607058E3,4.585945E2,5.987707E3,2.745818E0,1.2487066E0],"tree_param":{"num_deleted":"0","num_feature":"78","num_nodes":"41","size_leaf_vector":"1"}},{"base_weights":[-1.2681268E-3,1.0805194E0,-1.8072189E0,-1.7789957E-1,1.4866143E0,-4.802137E-1,-9.111823E-2,-1.4264987E0,1.4853642E0,1.0457226E0,1.7811482E0,-8.981421E-2,1.2576619E0,-1.4965006E0,1.6588578E0,9.07123E-2,4.1316333E-1,3.392966E-1,1.5616707E0,1.7843466E0,-1.6262321E-1,-1.1770749E0,1.715665E0,-8.971102E-2,-3.514512E-2,-1.1113082E-2,8.5557565E-2,-4.779544E-2,6.9025315E-2,-6.4962553E-3,5.8868196E-2,9.286118E-2,3.884912E-2,9.045348E-2,8.000098E-2,7.7481106E-2,-8.113161E-2,-7.973912E-2,3.2109085E-2,8.906218E-2,1.4509096E-2],"categories":[],"categories_nodes":[],"categories_segments":[],"categories_sizes":[],"default_left":[0,0,0,0,0,0,0,0,0,0,0,0,0,0,0,0,0,0,0,0,0,0,0,0,0,0,0,0,0,0,0,0,0,0,0,0,0,0,0,0,0],"id":2,"left_children":[1,3,5,7,9,11,-1,13,15,17,19,-1,21,23,25,-1,27,29,31,33,35,37,39,-1,-1,-1,-1,-1,-1,-1,-1,-1,-1,-1,-1,-1,-1,-1,-1,-1,-1],"loss_changes":[5.0343246E4,8.235848E3,1.9314258E2,8.1691514E3,1.5802969E3,2.5451454E2,0E0,4.8775342E2,5.9405493E2,1.7788462E3,4.5689453E1,0E0,5.5675964E1,5.179424E2,5.330353E0,0E0,5.2740857E2,8.109704E2,6.52813E2,3.0330078E1,3.4796337E1,7.2641582E0,3.3070602E0,0E0,0E0,0E0,0E0,0E0,0E0,0E0,0E0,0E0,0E0,0E0,0E0,0E0,0E0,0E0,0E0,0E0,0E0],"parents":[2147483647,0,0,1,1,2,2,3,3,4,4,5,5,7,7,8,8,9,9,10,10,12,12,13,13,14,14,16,16,17,17,18,18,19,19,20,20,21,21,22,22],"right_children":[2,4,6,8,10,12,-1,14,16,18,20,-1,22,24,26,-1,28,30,32,34,36,38,40,-1,-1,-1,-1,-1,-1,-1,-1,-1,-1,-1,-1,-1,-1,-1,-1,-1,-1],"split_conditions":[1.16E2,3.479425E-3,1.45E2,1.9735454E-4,4.358291E-3,1.6605859E6,-9.111823E-2,1.0016263E0,1E0,1E0,4.0734756E1,-8.981421E-2,6.5424736E-3,1E0,1.1272053E0,9.07123E-2,1E0,1E0,-1.74E2,2E0,1.7580397E-1,1E0,8.477101E5,-8.971102E-2,-3.514512E-2,-1.1113082E-2,8.5557565E-2,-4.779544E-2,6.9025315E-2,-6.4962553E-3,5.8868196E-2,9.286118E-2,3.884912E-2,9.045348E-2,8.000098E-2,7.7481106E-2,-8.113161E-2,-7.973912E-2,3.2109085E-2,8.906218E-2,1.4509096E-2],"split_indices":[33,0,33,20,24,3,0,23,21,30,26,0,15,30,24,0,30,56,33,0,8,66,4,0,0,0,0,0,0,0,0,0,0,0,0,0,0,0,0,0,0],"split_type":[0,0,0,0,0,0,0,0,0,0,0,0,0,0,0,0,0,0,0,0,0,0,0,0,0,0,0,0,0,0,0,0,0,0,0,0,0,0,0,0,0],"sum_hessian":[2.5766748E4,1.6114412E4,9.652337E3,3.9316033E3,1.2182809E4,1.0929165E2,9.543045E3,2.2458235E3,1.6857798E3,4.88097E3,7.3018384E3,6.2174274E1,4.711738E1,2.1965032E3,4.932027E1,1.2895403E3,3.9623947E2,2.060893E3,2.8200771E3,7.2899253E3,1.19133E1,7.211444E0,3.9905933E1,1.5963638E3,6.0013934E2,1.2460651E0,4.8074203E1,1.6405942E2,2.3218007E2,1.321724E3,7.391691E2,2.0475139E3,7.725632E2,6.420022E3,8.6990326E2,5.454768E0,6.4585314E0,5.965201E0,1.246243E0,3.791223E1,1.9937015E0],"tree_param":{"num_deleted":"0","num_feature":"78","num_nodes":"41","size_leaf_vector":"1"}},{"base_weights":[-3.0480293E-3,1.0369647E0,-1.7364469E0,-1.7410722E-1,1.4243113E0,-4.0037182E-1,-8.753621E-2,-9.5803845E-1,1.654177E0,8.4999436E-1,1.6434784E0,-8.616596E-2,1.2040447E0,-1.4777254E0,7.71917E-1,-8.1835285E-2,1.674001E0,2.9613113E-1,1.5940949E0,1.6497993E0,-9.292926E-2,-1.0583175E0,1.6718248E0,-8.3932355E-2,-4.5101333E-2,7.646601E-2,-3.0565826E-2,8.74058E-2,6.4512156E-2,-2.2335593E-2,5.6627046E-2,5.6530625E-2,8.546999E-2,7.1927495E-2,8.651222E-2,-7.7590995E-2,5.2124437E-2,1.1137257E-2,8.567842E-2],"categories":[],"categories_nodes":[],"categories_segments":[],"categories_sizes":[],"default_left":[0,0,0,0,0,0,0,0,0,0,0,0,0,0,0,0,0,0,0,0,0,0,0,0,0,0,0,0,0,0,0,0,0,0,0,0,0,0,0],"id":3,"left_children":[1,3,5,7,9,11,-1,13,15,17,19,-1,21,23,25,-1,27,29,31,33,-1,35,37,-1,-1,-1,-1,-1,-1,-1,-1,-1,-1,-1,-1,-1,-1,-1,-1],"loss_changes":[4.605519E4,7.4904785E3,1.8204688E2,5.548564E3,1.5213789E3,2.198219E2,0E0,2.4369753E3,7.8535645E1,1.3775293E3,1.96875E2,0E0,5.145623E1,2.3952441E2,6.573485E2,0E0,3.0605469E1,1.1922384E3,7.4303955E1,1.4603906E2,0E0,1.059269E1,1.995163E0,0E0,0E0,0E0,0E0,0E0,0E0,0E0,0E0,0E0,0E0,0E0,0E0,0E0,0E0,0E0,0E0],"parents":[2147483647,0,0,1,1,2,2,3,3,4,4,5,5,7,7,8,8,9,9,10,10,12,12,13,13,14,14,16,16,17,17,18,18,19,19,21,21,22,22],"right_children":[2,4,6,8,10,12,-1,14,16,18,20,-1,22,24,26,-1,28,30,32,34,-1,36,38,-1,-1,-1,-1,-1,-1,-1,-1,-1,-1,-1,-1,-1,-1,-1,-1],"split_conditions":[1.16E2,3.479425E-3,1.45E2,2.0035596E-1,1E0,1.6605859E6,-8.753621E-2,8.146802E-5,8.32574E4,4.358291E-3,1.2E1,-8.616596E-2,6.5424736E-3,1E0,1E0,-8.1835285E-2,1E0,1E0,2.782226E-3,3.296E1,-9.292926E-2,1E0,-3.745847E-2,-8.3932355E-2,-4.5101333E-2,7.646601E-2,-3.0565826E-2,8.74058E-2,6.4512156E-2,-2.2335593E-2,5.6627046E-2,5.6530625E-2,8.546999E-2,7.1927495E-2,8.651222E-2,-7.7590995E-2,5.2124437E-2,1.1137257E-2,8.567842E-2],"split_indices":[33,0,33,22,60,3,0,21,16,24,13,0,15,30,21,0,21,30,5,16,0,53,19,0,0,0,0,0,0,0,0,0,0,0,0,0,0,0,0],"split_type":[0,0,0,0,0,0,0,0,0,0,0,0,0,0,0,0,0,0,0,0,0,0,0,0,0,0,0,0,0,0,0,0,0,0,0,0,0,0,0],"sum_hessian":[2.5545092E4,1.5966086E4,9.579006E3,3.869213E3,1.2096873E4,1.0158702E2,9.477419E3,2.7083875E3,1.1608257E3,3.3426084E3,8.754265E3,5.5636745E1,4.5950275E1,2.0828384E3,6.255489E2,6.4624743E0,1.1543632E3,1.9170619E3,1.4255465E3,8.7390205E3,1.5244391E1,7.656774E0,3.82935E1,1.542561E3,5.4027734E2,4.0414804E2,2.2140086E2,9.645288E2,1.8983435E2,1.0155683E3,9.014935E2,2.8614764E2,1.1393989E3,2.4153E3,6.32372E3,6.411876E0,1.244898E0,1.249645E0,3.7043858E1],"tree_param":{"num_deleted":"0","num_feature":"78","num_nodes":"39","size_leaf_vector":"1"}},{"base_weights":[7.1437604E-4,-8.028987E-1,1.0296896E0,-1.2275987E0,9.4154274E-1,3.4646368E-1,1.649099E0,-1.4914157E0,8.790606E-1,1.6611402E0,-7.0377254E-1,-3.8347557E-1,1.0435228E0,1.6681219E0,-1.4698594E0,-1.5268097E0,7.8593546E-1,1.7651348E-1,1.3515633E0,1.6897789E0,1.049284E0,-1.1762496E0,1.1414013E0,8.029086E-1,-7.610377E-1,7.8436464E-1,8.625759E-2,1.6713381E0,-7.0681766E-2,-9.0179585E-2,1.0139437E0,-8.284389E-2,-5.939014E-2,7.525741E-2,-5.986016E-2,-1.8513797E-2,7.0024274E-2,4.6374954E-2,8.067395E-2,8.455851E-2,3.6174104E-2,-7.653046E-2,6.280022E-2,-8.591949E-2,-1.2007347E-2,6.624083E-2,-8.069268E-2,1.0785337E-2,8.454633E-2,-6.041115E-2,4.958793E-2,1.2501798E-2,8.674385E-2,1.8957864E-2,8.3794974E-2,6.172598E-2,9.462498E-3],"categories":[],"categories_nodes":[],"categories_segments":[],"categories_sizes":[],"default_left":[0,0,0,0,0,0,0,0,0,0,0,0,0,0,0,0,0,0,0,0,0,0,0,0,0,0,0,0,0,0,0,0,0,0,0,0,0,0,0,0,0,0,0,0,0,0,0,0,0,0,0,0,0,0,0,0,0],"id":4,"left_children":[1,3,5,7,9,11,13,15,17,19,21,23,25,27,29,31,33,35,37,39,41,43,45,47,49,51,-1,53,-1,-1,55,-1,-1,-1,-1,-1,-1,-1,-1,-1,-1,-1,-1,-1,-1,-1,-1,-1,-1,-1,-1,-1,-1,-1,-1,-1,-1],"loss_changes":[2.087581E4,1.0503109E4,4.684494E3,6.337293E3,3.2878162E3,2.6795027E3,3.4694727E2,8.1787305E2,4.2114636E2,3.207422E1,7.383432E2,1.1530457E3,4.7447778E2,5.956543E1,3.1446243E1,4.3796484E2,2.2390149E2,3.429048E2,8.278357E1,1.2543945E0,4.9391106E1,3.4140295E2,8.948689E1,3.2376465E2,1.5313671E3,9.917002E2,0E0,3.3350586E1,0E0,0E0,6.526742E-1,0E0,0E0,0E0,0E0,0E0,0E0,0E0,0E0,0E0,0E0,0E0,0E0,0E0,0E0,0E0,0E0,0E0,0E0,0E0,0E0,0E0,0E0,0E0,0E0,0E0,0E0],"parents":[2147483647,0,0,1,1,2,2,3,3,4,4,5,5,6,6,7,7,8,8,9,9,10,10,11,11,12,12,13,13,14,14,15,15,16,16,17,17,18,18,19,19,20,20,21,21,22,22,23,23,24,24,25,25,27,27,30,30],"right_children":[2,4,6,8,10,12,14,16,18,20,22,24,26,28,30,32,34,36,38,40,42,44,46,48,50,52,-1,54,-1,-1,56,-1,-1,-1,-1,-1,-1,-1,-1,-1,-1,-1,-1,-1,-1,-1,-1,-1,-1,-1,-1,-1,-1,-1,-1,-1,-1],"split_conditions":[7.688349E5,1.9735454E-4,1.0838959E-3,2.6125295E-4,1E0,1E0,2.0892478E6,1.0016263E0,1E0,6E0,1E0,1.6086602E6,1E0,3E0,6.0081844E0,1E0,1.3467711E5,1E0,1E0,3E0,-2.403041E-1,1E0,1.6086602E6,2.6125295E-4,5.0443254E0,1E0,8.625759E-2,1.1302786E6,-7.0681766E-2,-9.0179585E-2,1.03439806E6,-8.284389E-2,-5.939014E-2,7.525741E-2,-5.986016E-2,-1.8513797E-2,7.0024274E-2,4.6374954E-2,8.067395E-2,8.455851E-2,3.6174104E-2,-7.653046E-2,6.280022E-2,-8.591949E-2,-1.2007347E-2,6.624083E-2,-8.069268E-2,1.0785337E-2,8.454633E-2,-6.041115E-2,4.958793E-2,1.2501798E-2,8.674385E-2,1.8957864E-2,8.3794974E-2,6.172598E-2,9.462498E-3],"split_indices":[2,20,19,7,21,60,28,23,60,26,52,27,62,13,11,60,9,66,56,11,5,60,27,7,11,61,0,2,0,0,2,0,0,0,0,0,0,0,0,0,0,0,0,0,0,0,0,0,0,0,0,0,0,0,0,0,0],"split_type":[0,0,0,0,0,0,0,0,0,0,0,0,0,0,0,0,0,0,0,0,0,0,0,0,0,0,0,0,0,0,0,0,0,0,0,0,0,0,0,0,0,0,0,0,0,0,0,0,0,0,0,0,0,0,0,0,0],"sum_hessian":[2.5243936E4,1.4174274E4,1.1069661E4,1.1399307E4,2.7749675E3,5.26442E3,5.8052417E3,1.0130904E4,1.268402E3,1.9305916E3,8.4437585E2,2.5717795E3,2.6926401E3,5.7705117E3,3.473E1,9.9761875E3,1.5471738E2,5.1059314E2,7.5780884E2,1.8425851E3,8.800651E1,6.725297E2,1.7184613E2,6.2059753E2,1.9511821E3,1.9524583E3,7.401819E2,5.764953E3,5.5585394E0,3.0857712E1,3.8722897E0,7.2071177E3,2.7690698E3,1.13717255E2,4.1000122E1,3.5341034E2,1.571828E2,2.910746E2,4.6673425E2,1.8391871E3,3.3979316E0,6.0535345E0,8.195297E1,4.2535272E2,2.4717703E2,1.6160722E2,1.0238908E1,3.7432083E2,2.4627673E2,1.5548173E3,3.9636487E2,1.2506633E3,7.01795E2,2.0574924E1,5.744378E3,2.6630704E0,1.2092191E0],"tree_param":{"num_deleted":"0","num_feature":"78","num_nodes":"57","size_leaf_vector":"1"}},{"base_weights":[-2.1124333E-4,9.6892965E-1,-1.6309065E0,-1.4783427E-1,1.3296195E0,-4.0923798E-1,-8.2213454E-2,-1.2501013E0,1.3320789E0,7.949177E-1,1.5363661E0,-1.442847E0,1.3382957E0,-1.3176043E0,1.5540459E0,1.6258582E0,3.9703637E-1,2.887353E-1,1.4897916E0,1.3260143E0,1.6175767E0,-8.104539E-2,9.1496783E-1,-6.534954E-2,7.965388E-2,-7.100292E-2,-4.0809033E-3,-4.8503015E-2,8.302302E-2,8.1486486E-2,5.4065313E-2,-5.299252E-2,6.182639E-2,-6.181357E-3,6.903993E-2,7.649549E-2,-9.3134634E-2,6.766225E-2,-9.225592E-2,8.092792E-2,3.7072726E-2,6.303062E-2,1.8529197E-3],"categories":[],"categories_nodes":[],"categories_segments":[],"categories_sizes":[],"default_left":[0,0,0,0,0,0,0,0,0,0,0,0,0,0,0,0,0,0,0,0,0,0,0,0,0,0,0,0,0,0,0,0,0,0,0,0,0,0,0,0,0,0,0],"id":5,"left_children":[1,3,5,7,9,11,-1,13,15,17,19,21,23,25,27,29,31,33,35,37,39,-1,41,-1,-1,-1,-1,-1,-1,-1,-1,-1,-1,-1,-1,-1,-1,-1,-1,-1,-1,-1,-1],"loss_changes":[3.9437273E4,6.3049697E3,1.511836E2,6.2364204E3,1.3066797E3,1.8613179E2,0E0,4.167849E2,4.4766382E2,1.1606663E3,1.4358789E2,2.8587448E1,2.7975517E1,2.7088452E2,1.5568024E1,8.552246E-1,4.8012787E2,8.607814E2,1.899314E2,2.0816455E2,4.0898438E0,0E0,1.5228076E0,0E0,0E0,0E0,0E0,0E0,0E0,0E0,0E0,0E0,0E0,0E0,0E0,0E0,0E0,0E0,0E0,0E0,0E0,0E0,0E0],"parents":[2147483647,0,0,1,1,2,2,3,3,4,4,5,5,7,7,8,8,9,9,10,10,11,11,12,12,13,13,14,14,15,15,16,16,17,17,18,18,19,19,20,20,22,22],"right_children":[2,4,6,8,10,12,-1,14,16,18,20,22,24,26,28,30,32,34,36,38,40,-1,42,-1,-1,-1,-1,-1,-1,-1,-1,-1,-1,-1,-1,-1,-1,-1,-1,-1,-1,-1,-1],"split_conditions":[1.16E2,3.479425E-3,1.45E2,1.9735454E-4,1E0,1.7535202E6,-8.2213454E-2,1.0016263E0,1E0,4.358291E-3,3.296E1,5.0443254E0,9.094319E5,1E0,1E0,1.5E1,1E0,1E0,3.1114498E6,1.2E1,4.0734756E1,-8.104539E-2,9.2599056E5,-6.534954E-2,7.965388E-2,-7.100292E-2,-4.0809033E-3,-4.8503015E-2,8.302302E-2,8.1486486E-2,5.4065313E-2,-5.299252E-2,6.182639E-2,-6.181357E-3,6.903993E-2,7.649549E-2,-9.3134634E-2,6.766225E-2,-9.225592E-2,8.092792E-2,3.7072726E-2,6.303062E-2,1.8529197E-3],"split_indices":[33,0,33,20,60,2,0,23,21,24,16,11,16,36,60,29,60,66,28,0,26,0,2,0,0,0,0,0,0,0,0,0,0,0,0,0,0,0,0,0,0,0,0],"split_type":[0,0,0,0,0,0,0,0,0,0,0,0,0,0,0,0,0,0,0,0,0,0,0,0,0,0,0,0,0,0,0,0,0,0,0,0,0,0,0,0,0,0,0],"sum_hessian":[2.4952402E4,1.5651149E4,9.301252E3,3.8210498E3,1.18301E4,1.0097876E2,9.200273E3,2.19003E3,1.6310199E3,3.300073E3,8.530026E3,6.3559654E1,3.74191E1,2.1390671E3,5.096277E1,1.2405234E3,3.9049646E2,1.9100839E3,1.3899891E3,2.3807449E3,6.1492817E3,5.93873E1,4.172356E0,2.9245872E0,3.4494514E1,1.9751898E3,1.6387732E2,1.7333169E0,4.922945E1,1.2297876E3,1.073585E1,1.426586E2,2.4783786E2,1.3871744E3,5.229094E2,1.3740895E3,1.5899667E1,2.3610437E3,1.9701067E1,6.1415527E3,7.7290344E0,2.680918E0,1.491438E0],"tree_param":{"num_deleted":"0","num_feature":"78","num_nodes":"43","size_leaf_vector":"1"}},{"base_weights":[2.3539113E-3,9.389177E-1,-1.5802649E0,-1.5185788E-1,1.2881085E0,-3.8787183E-1,-7.966167E-2,-1.2123709E0,1.2932034E0,7.828224E-1,1.4868308E0,-7.834243E-2,1.0840915E0,-1.32078E0,4.0488967E-1,7.8801565E-2,3.930374E-1,-9.1610587E-1,9.878653E-1,1.4928268E0,-8.312082E-2,-1.2144448E0,1.4884145E0,-6.999613E-2,-1.2812686E-2,-2.4304546E-2,9.9133894E-2,-5.1653106E-2,6.0023315E-2,-6.9454186E-2,3.479254E-2,6.7421935E-2,1.7847313E-2,6.513574E-2,7.833729E-2,-7.2475644E-3,-7.011487E-2,7.738147E-2,1.7817462E-2],"categories":[],"categories_nodes":[],"categories_segments":[],"categories_sizes":[],"default_left":[0,0,0,0,0,0,0,0,0,0,0,0,0,0,0,0,0,0,0,0,0,0,0,0,0,0,0,0,0,0,0,0,0,0,0,0,0,0,0],"id":6,"left_children":[1,3,5,7,9,11,-1,13,15,17,19,-1,21,23,25,-1,27,29,31,33,-1,35,37,-1,-1,-1,-1,-1,-1,-1,-1,-1,-1,-1,-1,-1,-1,-1,-1],"loss_changes":[3.627248E4,5.8558916E3,1.4006836E2,5.7163174E3,1.1682051E3,1.7386224E2,0E0,3.7769336E2,4.013391E2,1.1467738E3,1.6028906E2,0E0,4.336071E1,1.6951196E2,1.920178E2,0E0,4.3741522E2,2.7144284E2,6.6735205E2,1.1518555E2,0E0,1.2511377E0,2.027542E0,0E0,0E0,0E0,0E0,0E0,0E0,0E0,0E0,0E0,0E0,0E0,0E0,0E0,0E0,0E0,0E0],"parents":[2147483647,0,0,1,1,2,2,3,3,4,4,5,5,7,7,8,8,9,9,10,10,12,12,13,13,14,14,16,16,17,17,18,18,19,19,21,21,22,22],"right_children":[2,4,6,8,10,12,-1,14,16,18,20,-1,22,24,26,-1,28,30,32,34,-1,36,38,-1,-1,-1,-1,-1,-1,-1,-1,-1,-1,-1,-1,-1,-1,-1,-1],"split_conditions":[1.16E2,3.479425E-3,1.45E2,1.9735454E-4,1E0,1.6605859E6,-7.966167E-2,8.146802E-5,1E0,-2.7287573E-1,1.2E1,-7.834243E-2,3.296E1,1E0,1E0,7.8801565E-2,1E0,1E0,2E0,3.296E1,-8.312082E-2,-1.705968E-1,8.477101E5,-6.999613E-2,-1.2812686E-2,-2.4304546E-2,9.9133894E-2,-5.1653106E-2,6.0023315E-2,-6.9454186E-2,3.479254E-2,6.7421935E-2,1.7847313E-2,6.513574E-2,7.833729E-2,-7.2475644E-3,-7.011487E-2,7.738147E-2,1.7817462E-2],"split_indices":[33,0,33,20,60,3,0,21,21,5,13,0,16,36,63,0,60,66,0,16,0,5,4,0,0,0,0,0,0,0,0,0,0,0,0,0,0,0,0],"split_type":[0,0,0,0,0,0,0,0,0,0,0,0,0,0,0,0,0,0,0,0,0,0,0,0,0,0,0,0,0,0,0,0,0,0,0,0,0,0,0],"sum_hessian":[2.446967E4,1.5372766E4,9.096904E3,3.728022E3,1.1644744E4,9.820628E1,8.998698E3,2.1501868E3,1.5778351E3,3.288387E3,8.356356E3,5.4494312E1,4.371197E1,2.0152806E3,1.349062E2,1.200038E3,3.7779718E2,3.5376038E2,2.9346267E3,8.341002E3,1.5354576E1,6.239183E0,3.7472786E1,1.8755287E3,1.3975189E2,8.666065E1,4.8245552E1,1.3647409E2,2.413231E2,2.7361496E2,8.014542E1,1.8666753E3,1.0679514E3,2.3403884E3,6.000614E3,1.1968466E0,5.0423365E0,3.526129E1,2.211495E0],"tree_param":{"num_deleted":"0","num_feature":"78","num_nodes":"39","size_leaf_vector":"1"}},{"base_weights":[6.8573444E-4,9.044962E-1,-1.5354352E0,-1.4448415E-1,1.2419523E0,-3.9726007E-1,-7.7396095E-2,-8.128253E-1,1.4388322E0,7.9263943E-1,1.4775178E0,-1.3786701E0,1.2255139E0,-1.2760142E0,7.1052295E-1,-7.7584796E-2,1.4608754E0,1.5229425E-1,1.3007365E0,8.9912647E-1,1.5144291E0,-7.642103E-2,7.8965783E-1,-6.2222432E-2,7.505262E-2,-6.938776E-2,-8.438534E-3,6.838747E-2,-2.3832917E-2,5.3273577E-2,7.6624125E-2,-2.647083E-2,4.172962E-2,8.102674E-2,1.9108003E-2,2.705218E-3,7.714483E-2,7.5785406E-2,-6.6187285E-2,5.896699E-2,-7.780877E-3],"categories":[],"categories_nodes":[],"categories_segments":[],"categories_sizes":[],"default_left":[0,0,0,0,0,0,0,0,0,0,0,0,0,0,0,0,0,0,0,0,0,0,0,0,0,0,0,0,0,0,0,0,0,0,0,0,0,0,0,0,0],"id":7,"left_children":[1,3,5,7,9,11,-1,13,15,17,19,21,23,25,27,-1,29,31,33,35,37,-1,39,-1,-1,-1,-1,-1,-1,-1,-1,-1,-1,-1,-1,-1,-1,-1,-1,-1,-1],"loss_changes":[3.3357637E4,5.354755E3,1.25875E2,3.8981592E3,1.2101855E3,1.5764813E2,0E0,1.8285569E3,7.434839E1,1.281273E3,1.5891211E2,2.1174103E1,2.734438E1,2.455603E2,4.7237915E2,0E0,2.9115234E1,8.114814E2,6.4446704E2,2.462456E2,2.7617188E1,0E0,1.8896968E0,0E0,0E0,0E0,0E0,0E0,0E0,0E0,0E0,0E0,0E0,0E0,0E0,0E0,0E0,0E0,0E0,0E0,0E0],"parents":[2147483647,0,0,1,1,2,2,3,3,4,4,5,5,7,7,8,8,9,9,10,10,11,11,12,12,13,13,14,14,16,16,17,17,18,18,19,19,20,20,22,22],"right_children":[2,4,6,8,10,12,-1,14,16,18,20,22,24,26,28,-1,30,32,34,36,38,-1,40,-1,-1,-1,-1,-1,-1,-1,-1,-1,-1,-1,-1,-1,-1,-1,-1,-1,-1],"split_conditions":[1.16E2,3.479425E-3,1.45E2,2.0035596E-1,3.296E1,1.7535202E6,-7.7396095E-2,8.146802E-5,8.543729E4,1E0,-1.9636025E-1,5.0443254E0,6.5424736E-3,1E0,1E0,-7.7584796E-2,1E0,1E0,-1.74E2,8.146802E-5,1E0,-7.642103E-2,9.2599056E5,-6.2222432E-2,7.505262E-2,-6.938776E-2,-8.438534E-3,6.838747E-2,-2.3832917E-2,5.3273577E-2,7.6624125E-2,-2.647083E-2,4.172962E-2,8.102674E-2,1.9108003E-2,2.705218E-3,7.714483E-2,7.5785406E-2,-6.6187285E-2,5.896699E-2,-7.780877E-3],"split_indices":[33,0,33,22,16,2,0,21,27,30,19,11,15,65,21,0,60,60,33,21,7,0,2,0,0,0,0,0,0,0,0,0,0,0,0,0,0,0,0,0,0],"split_type":[0,0,0,0,0,0,0,0,0,0,0,0,0,0,0,0,0,0,0,0,0,0,0,0,0,0,0,0,0,0,0,0,0,0,0,0,0,0,0,0,0],"sum_hessian":[2.4024613E4,1.5125565E4,8.899048E3,3.6816746E3,1.1443891E4,9.6926605E1,8.802121E3,2.5892153E3,1.0924594E3,3.9376543E3,7.5062363E3,6.0492683E1,3.643392E1,1.9856282E3,6.0358716E2,7.4858565E0,1.0849735E3,1.7426832E3,2.194971E3,4.5181088E2,7.0544253E3,5.686084E1,3.6318452E0,3.3035996E0,3.313032E1,1.8033811E3,1.8224709E2,3.8841025E2,2.1517691E2,1.6879446E2,9.16179E2,8.7182886E2,8.708544E2,1.6275742E3,5.673968E2,1.9583676E2,2.5597414E2,7.0517134E3,2.711885E0,2.3963535E0,1.2354919E0],"tree_param":{"num_deleted":"0","num_feature":"78","num_nodes":"41","size_leaf_vector":"1"}},{"base_weights":[5.604468E-4,8.7263024E-1,-1.4948943E0,-1.4451562E-1,1.1998659E0,-3.5141924E-1,-7.5357616E-2,-1.1246877E0,1.200972E0,7.648651E-1,1.432033E0,-7.406416E-2,1.0506096E0,-1.4059944E0,-3.9871815E-1,1.4936923E0,3.1962544E-1,1.5442482E-1,1.2550783E0,8.400273E-1,1.4701899E0,-9.138039E-1,1.4048855E0,-7.4496105E-2,7.43039E-2,1.16769254E-1,-6.285978E-2,7.489028E-2,4.584394E-2,-5.0132032E-2,5.5609334E-2,-3.305371E-2,3.379918E-2,7.832898E-2,1.6231896E-2,3.7314687E-3,7.3968455E-2,7.365652E-2,-9.649409E-3,2.8599937E-2,-6.5739445E-2,-1.0686415E-2,7.342445E-2],"categories":[],"categories_nodes":[],"categories_segments":[],"categories_sizes":[],"default_left":[0,0,0,0,0,0,0,0,0,0,0,0,0,0,0,0,0,0,0,0,0,0,0,0,0,0,0,0,0,0,0,0,0,0,0,0,0,0,0,0,0,0,0],"id":8,"left_children":[1,3,5,7,9,11,-1,13,15,17,19,-1,21,23,25,27,29,31,33,35,37,39,41,-1,-1,-1,-1,-1,-1,-1,-1,-1,-1,-1,-1,-1,-1,-1,-1,-1,-1,-1,-1],"loss_changes":[3.0790434E4,4.9639688E3,1.2136719E2,4.789822E3,1.1384336E3,1.4973714E2,0E0,4.2853442E2,3.944414E2,1.1754231E3,1.6492383E2,0E0,3.074218E1,3.6968774E2,1.3835181E3,1.3522949E0,4.0241156E2,7.4514734E2,6.3095825E2,2.1898526E2,3.4072266E1,4.966253E0,4.046318E0,0E0,0E0,0E0,0E0,0E0,0E0,0E0,0E0,0E0,0E0,0E0,0E0,0E0,0E0,0E0,0E0,0E0,0E0,0E0,0E0],"parents":[2147483647,0,0,1,1,2,2,3,3,4,4,5,5,7,7,8,8,9,9,10,10,12,12,13,13,14,14,15,15,16,16,17,17,18,18,19,19,20,20,21,21,22,22],"right_children":[2,4,6,8,10,12,-1,14,16,18,20,-1,22,24,26,28,30,32,34,36,38,40,42,-1,-1,-1,-1,-1,-1,-1,-1,-1,-1,-1,-1,-1,-1,-1,-1,-1,-1,-1,-1],"split_conditions":[1.16E2,6.4048904E1,1.45E2,1.9735454E-4,3.296E1,1.6605859E6,-7.5357616E-2,1E0,1E0,1E0,-1.9636025E-1,-7.406416E-2,6.5424736E-3,1.0016263E0,-1.74E2,1.5E1,1E0,-1.4579792E-1,-1.66E2,8.146802E-5,4.0734756E1,9.2599056E5,-3.745847E-2,-7.4496105E-2,7.43039E-2,1.16769254E-1,-6.285978E-2,7.489028E-2,4.584394E-2,-5.0132032E-2,5.5609334E-2,-3.305371E-2,3.379918E-2,7.832898E-2,1.6231896E-2,3.7314687E-3,7.3968455E-2,7.365652E-2,-9.649409E-3,2.8599937E-2,-6.5739445E-2,-1.0686415E-2,7.342445E-2],"split_indices":[33,10,33,20,16,3,0,30,21,30,19,0,15,23,33,29,60,5,33,21,26,2,19,0,0,0,0,0,0,0,0,0,0,0,0,0,0,0,0,0,0,0,0],"split_type":[0,0,0,0,0,0,0,0,0,0,0,0,0,0,0,0,0,0,0,0,0,0,0,0,0,0,0,0,0,0,0,0,0,0,0,0,0,0,0,0,0,0,0],"sum_hessian":[2.3607742E4,1.4912172E4,8.69557E3,3.6299048E3,1.1282268E4,9.254253E1,8.603028E3,2.1001406E3,1.529764E3,3.9275984E3,7.354669E3,5.1213875E1,4.1328655E1,1.5129496E3,5.871911E2,1.1478391E3,3.8192493E2,1.7498743E3,2.177724E3,4.4672708E2,6.907942E3,6.073353E0,3.5255302E1,1.4707533E3,4.2196316E1,1.3990317E2,4.4728793E2,1.1381262E3,9.712947E0,1.430324E2,2.3889253E2,6.824856E2,1.0673887E3,1.6309996E3,5.4672455E2,2.0382799E2,2.428991E2,6.8958643E3,1.2077181E1,1.2000877E0,4.8732653E0,1.2437345E0,3.4011566E1],"tree_param":{"num_deleted":"0","num_feature":"78","num_nodes":"43","size_leaf_vector":"1"}},{"base_weights":[1.6017307E-3,8.497745E-1,-1.4581187E0,-1.3994336E-1,1.1661435E0,-3.3806157E-1,-7.352084E-2,-7.647544E-1,1.3705064E0,6.6797423E-1,1.3638276E0,-7.23094E-2,1.0092751E0,-1.1985668E0,6.333907E-1,-7.349222E-2,1.390846E0,-9.1672146E-1,8.62473E-1,1.1616089E0,1.4448941E0,-8.5896665E-1,1.392181E0,-7.04852E-2,-3.0926019E-2,6.5068774E-2,-2.6935099E-2,7.3143505E-2,5.2214302E-2,-6.394526E-2,4.2505927E-2,6.0960032E-2,1.3143741E-2,3.9664034E-2,6.977838E-2,6.4212196E-2,7.289615E-2,-6.49848E-2,3.2800563E-2,1.4369281E-2,7.1545295E-2],"categories":[],"categories_nodes":[],"categories_segments":[],"categories_sizes":[],"default_left":[0,0,0,0,0,0,0,0,0,0,0,0,0,0,0,0,0,0,0,0,0,0,0,0,0,0,0,0,0,0,0,0,0,0,0,0,0,0,0,0,0],"id":9,"left_children":[1,3,5,7,9,11,-1,13,15,17,19,-1,21,23,25,-1,27,29,31,33,35,37,39,-1,-1,-1,-1,-1,-1,-1,-1,-1,-1,-1,-1,-1,-1,-1,-1,-1,-1],"loss_changes":[2.85472E4,4.566509E3,1.1622656E2,3.3356968E3,1.0874072E3,1.408027E2,0E0,1.5171678E3,6.1796875E1,9.6905676E2,1.2800195E2,0E0,3.1747307E1,2.3285278E2,4.647425E2,0E0,2.4118408E1,2.211589E2,5.982722E2,1.9440894E2,9.938477E0,6.115891E0,1.1214828E0,0E0,0E0,0E0,0E0,0E0,0E0,0E0,0E0,0E0,0E0,0E0,0E0,0E0,0E0,0E0,0E0,0E0,0E0],"parents":[2147483647,0,0,1,1,2,2,3,3,4,4,5,5,7,7,8,8,9,9,10,10,12,12,13,13,14,14,16,16,17,17,18,18,19,19,20,20,21,21,22,22],"right_children":[2,4,6,8,10,12,-1,14,16,18,20,-1,22,24,26,-1,28,30,32,34,36,38,40,-1,-1,-1,-1,-1,-1,-1,-1,-1,-1,-1,-1,-1,-1,-1,-1,-1,-1],"split_conditions":[1.16E2,3.479425E-3,1.45E2,2.0035596E-1,1E0,1.823811E6,-7.352084E-2,8.146802E-5,8.543729E4,-2.7287573E-1,7.7445E2,-7.23094E-2,6.5424736E-3,1E0,1E0,-7.349222E-2,1E0,1E0,2E0,1E0,-1.3995706E-1,1E0,-2.4947278E-2,-7.04852E-2,-3.0926019E-2,6.5068774E-2,-2.6935099E-2,7.3143505E-2,5.2214302E-2,-6.394526E-2,4.2505927E-2,6.0960032E-2,1.3143741E-2,3.9664034E-2,6.977838E-2,6.4212196E-2,7.289615E-2,-6.49848E-2,3.2800563E-2,1.4369281E-2,7.1545295E-2],"split_indices":[33,0,33,22,60,9,0,21,27,5,16,0,15,30,21,0,21,74,0,30,19,53,19,0,0,0,0,0,0,0,0,0,0,0,0,0,0,0,0,0,0],"split_type":[0,0,0,0,0,0,0,0,0,0,0,0,0,0,0,0,0,0,0,0,0,0,0,0,0,0,0,0,0,0,0,0,0,0,0,0,0,0,0,0,0],"sum_hessian":[2.3055355E4,1.4582557E4,8.472799E3,3.5324187E3,1.1050139E4,9.2329735E1,8.38047E3,2.4991265E3,1.0332922E3,3.1404634E3,7.909675E3,5.062197E1,4.1707764E1,1.9074355E3,5.9169086E2,6.8400383E0,1.0264523E3,3.4290463E2,2.7975588E3,2.267863E3,5.641812E3,6.8827534E0,3.4825012E1,1.3973641E3,5.1007144E2,3.76825E2,2.1486584E2,8.471678E2,1.7928444E2,2.847998E2,5.8104824E1,1.7533685E3,1.0441902E3,8.8265814E2,1.385205E3,4.3070755E2,5.2111045E3,5.4417663E0,1.4409872E0,1.4645134E0,3.3360497E1],"tree_param":{"num_deleted":"0","num_feature":"78","num_nodes":"41","size_leaf_vector":"1"}},{"base_weights":[-6.8865606E-4,8.228015E-1,-1.4253342E0,-1.3275877E-1,1.1288891E0,-3.6414546E-1,-7.184513E-2,-1.0578095E0,1.1494384E0,6.998833E-1,1.3629279E0,-7.060921E-2,9.26325E-1,-1.3304292E0,-3.752345E-1,7.142701E-2,3.3066392E-1,1.2231979E-1,1.1835887E0,7.9701114E-1,1.4013038E0,-8.487513E-1,1.314218E0,-7.08051E-2,7.3508404E-2,1.1109877E-1,-6.0802896E-2,-4.4352856E-2,5.9085894E-2,-3.6207866E-2,2.8018583E-2,7.498338E-2,1.5461586E-2,2.736162E-3,7.128749E-2,7.019608E-2,-1.7063633E-2,-6.367916E-2,3.215766E-2,-2.9013237E-2,7.008485E-2],"categories":[],"categories_nodes":[],"categories_segments":[],"categories_sizes":[],"default_left":[0,0,0,0,0,0,0,0,0,0,0,0,0,0,0,0,0,0,0,0,0,0,0,0,0,0,0,0,0,0,0,0,0,0,0,0,0,0,0,0,0],"id":10,"left_children":[1,3,5,7,9,11,-1,13,15,17,19,-1,21,23,25,-1,27,29,31,33,35,37,39,-1,-1,-1,-1,-1,-1,-1,-1,-1,-1,-1,-1,-1,-1,-1,-1,-1,-1],"loss_changes":[2.6433385E4,4.176296E3,1.0079492E2,4.110933E3,1.0848389E3,1.2348944E2,0E0,3.7414185E2,3.3148035E2,1.0668341E3,1.5082031E2,0E0,2.9408276E1,3.4717896E2,1.2605734E3,0E0,3.85101E2,6.462824E2,5.7392993E2,2.0835406E2,3.0359375E1,5.8747497E0,6.4670525E0,0E0,0E0,0E0,0E0,0E0,0E0,0E0,0E0,0E0,0E0,0E0,0E0,0E0,0E0,0E0,0E0,0E0,0E0],"parents":[2147483647,0,0,1,1,2,2,3,3,4,4,5,5,7,7,8,8,9,9,10,10,12,12,13,13,14,14,16,16,17,17,18,18,19,19,20,20,21,21,22,22],"right_children":[2,4,6,8,10,12,-1,14,16,18,20,-1,22,24,26,-1,28,30,32,34,36,38,40,-1,-1,-1,-1,-1,-1,-1,-1,-1,-1,-1,-1,-1,-1,-1,-1,-1,-1],"split_conditions":[1.16E2,6.4048904E1,1.45E2,1.9735454E-4,3.296E1,1.6057242E6,-7.184513E-2,1E0,1E0,1E0,-1.9636025E-1,-7.060921E-2,6.5424736E-3,1.0016263E0,-1.74E2,7.142701E-2,1E0,8.6961675E5,-1.74E2,8.146802E-5,4.0734756E1,5.0443254E0,-4.275618E-2,-7.08051E-2,7.3508404E-2,1.1109877E-1,-6.0802896E-2,-4.4352856E-2,5.9085894E-2,-3.6207866E-2,2.8018583E-2,7.498338E-2,1.5461586E-2,2.736162E-3,7.128749E-2,7.019608E-2,-1.7063633E-2,-6.367916E-2,3.215766E-2,-2.9013237E-2,7.008485E-2],"split_indices":[33,1,33,20,16,9,0,30,21,30,19,0,15,23,33,0,30,2,33,21,26,11,19,0,0,0,0,0,0,0,0,0,0,0,0,0,0,0,0,0,0],"split_type":[0,0,0,0,0,0,0,0,0,0,0,0,0,0,0,0,0,0,0,0,0,0,0,0,0,0,0,0,0,0,0,0,0,0,0,0,0,0,0,0,0],"sum_hessian":[2.252937E4,1.4277148E4,8.252221E3,3.4639072E3,1.0813241E4,8.9339836E1,8.162881E3,2.0122961E3,1.4516111E3,3.8182236E3,6.995018E3,4.924877E1,4.0091064E1,1.4372936E3,5.7500256E2,1.0820276E3,3.6958344E2,1.7408422E3,2.0773816E3,4.4560342E2,6.5494146E3,6.976607E0,3.311446E1,1.3951102E3,4.218336E1,1.4022389E2,4.3477863E2,1.5202206E2,2.1756139E2,5.9344165E2,1.1474005E3,1.5252798E3,5.521017E2,2.0484763E2,2.4075578E2,6.5397847E3,9.629778E0,5.5441914E0,1.4324158E0,1.212954E0,3.1901505E1],"tree_param":{"num_deleted":"0","num_feature":"78","num_nodes":"41","size_leaf_vector":"1"}},{"base_weights":[1.5762227E-3,-7.578369E-1,7.2570354E-1,-1.2140641E0,9.7493455E-2,-2.1190463E-1,1.0762805E0,-1.275872E0,3.2934865E-1,-3.7980506E-1,1.0749323E0,-1.1058307E0,1.116311E0,6.3569266E-1,1.3653E0,-1.3298204E0,3.9922524E-2,1.3856442E0,-9.371001E-1,6.465296E-2,-1.0510994E0,1.20074E0,-1.543987E0,-1.2375654E0,2.0778475E0,6.987751E-2,3.2821822E-1,3.670474E-1,7.429365E-2,1.3899003E0,1.1743739E0,-6.725137E-2,1.4682896E-2,-3.534088E-2,4.8683576E-2,6.9590084E-2,1.44350855E-2,9.1134556E-2,-7.345419E-2,-8.421212E-3,8.6838335E-2,-7.249056E-2,-6.970724E-4,-8.582933E-2,6.229463E-2,-8.264653E-2,4.496821E-3,-6.510951E-2,9.873586E-2,1.1483127E-1,8.975481E-2,-1.8865002E-2,6.704328E-2,-7.9168845E-3,7.359798E-2,6.956388E-2,-4.9195237E-2,6.163872E-2,-8.669711E-2],"categories":[],"categories_nodes":[],"categories_segments":[],"categories_sizes":[],"default_left":[0,0,0,0,0,0,0,0,0,0,0,0,0,0,0,0,0,0,0,0,0,0,0,0,0,0,0,0,0,0,0,0,0,0,0,0,0,0,0,0,0,0,0,0,0,0,0,0,0,0,0,0,0,0,0,0,0,0,0],"id":11,"left_children":[1,3,5,7,9,11,13,15,17,19,21,23,25,27,29,31,33,35,37,39,41,43,45,47,49,-1,51,53,-1,55,57,-1,-1,-1,-1,-1,-1,-1,-1,-1,-1,-1,-1,-1,-1,-1,-1,-1,-1,-1,-1,-1,-1,-1,-1,-1,-1,-1,-1],"loss_changes":[1.2125026E4,4.199839E3,3.7102207E3,6.6996875E2,1.7473812E3,3.6492913E3,1.045248E3,4.7910645E2,3.6388635E2,7.5096924E2,4.0674036E2,7.730078E2,2.7360376E2,7.431554E2,2.1664062E1,1.6044531E2,1.8669977E2,5.9906006E-1,1.8452022E2,5.9079254E2,4.1458118E2,1.566654E2,1.0252914E1,3.6889526E2,4.1567993E-1,0E0,2.337807E2,1.4373599E3,0E0,1.5716797E1,9.939099E1,0E0,0E0,0E0,0E0,0E0,0E0,0E0,0E0,0E0,0E0,0E0,0E0,0E0,0E0,0E0,0E0,0E0,0E0,0E0,0E0,0E0,0E0,0E0,0E0,0E0,0E0,0E0,0E0],"parents":[2147483647,0,0,1,1,2,2,3,3,4,4,5,5,6,6,7,7,8,8,9,9,10,10,11,11,12,12,13,13,14,14,15,15,16,16,17,17,18,18,19,19,20,20,21,21,22,22,23,23,24,24,26,26,27,27,29,29,30,30],"right_children":[2,4,6,8,10,12,14,16,18,20,22,24,26,28,30,32,34,36,38,40,42,44,46,48,50,-1,52,54,-1,56,58,-1,-1,-1,-1,-1,-1,-1,-1,-1,-1,-1,-1,-1,-1,-1,-1,-1,-1,-1,-1,-1,-1,-1,-1,-1,-1,-1,-1],"split_conditions":[1E0,5.665966E5,3.479425E-3,2.0035596E-1,4.358291E-3,1.9735454E-4,4.358291E-3,1.8030276E-4,1E0,2.0776848E6,7.537422E5,1E0,1E0,1E0,2E0,1.0016263E0,1E0,2.923247E0,9.963166E-1,8E0,1E0,3.5858902E6,1E0,1E0,8.146802E-5,6.987751E-2,1E0,1E0,7.429365E-2,1E0,4.3473465E6,-6.725137E-2,1.4682896E-2,-3.534088E-2,4.8683576E-2,6.9590084E-2,1.44350855E-2,9.1134556E-2,-7.345419E-2,-8.421212E-3,8.6838335E-2,-7.249056E-2,-6.970724E-4,-8.582933E-2,6.229463E-2,-8.264653E-2,4.496821E-3,-6.510951E-2,9.873586E-2,1.1483127E-1,8.975481E-2,-1.8865002E-2,6.704328E-2,-7.9168845E-3,7.359798E-2,6.956388E-2,-4.9195237E-2,6.163872E-2,-8.669711E-2],"split_indices":[60,2,0,22,24,20,24,6,21,3,28,61,21,61,0,23,59,15,22,11,56,27,68,62,21,0,72,62,0,7,28,0,0,0,0,0,0,0,0,0,0,0,0,0,0,0,0,0,0,0,0,0,0,0,0,0,0,0,0],"split_type":[0,0,0,0,0,0,0,0,0,0,0,0,0,0,0,0,0,0,0,0,0,0,0,0,0,0,0,0,0,0,0,0,0,0,0,0,0,0,0,0,0,0,0,0,0,0,0,0,0,0,0,0,0,0,0,0,0,0,0],"sum_hessian":[2.204704E4,1.0761304E4,1.1285735E4,7.017695E3,3.7436091E3,3.0714968E3,8.214238E3,6.747651E3,2.7004425E2,2.515744E3,1.2278652E3,1.8359912E3,1.2355057E3,3.2551763E3,4.959062E3,6.4818784E3,2.6577206E2,1.471871E2,1.2285715E2,1.5141454E3,1.00159845E3,1.1721013E3,5.576386E1,1.7636268E3,7.236438E1,9.0999207E2,3.2551367E2,2.474652E3,7.805241E2,4.387468E3,5.715941E2,6.421897E3,5.9981438E1,1.4780894E2,1.1796311E2,1.4609822E2,1.0888871E0,1.9462837E1,1.0339432E2,1.3296971E3,1.8444823E2,7.231877E2,2.7841077E2,1.7300379E1,1.1548009E3,5.2267258E1,3.4966023E0,1.7294287E3,3.4198032E1,3.678202E1,3.5582355E1,1.9222008E2,1.3329361E2,1.6777429E3,7.969091E2,4.3853374E3,2.1303043E0,5.609069E2,1.0687176E1],"tree_param":{"num_deleted":"0","num_feature":"78","num_nodes":"59","size_leaf_vector":"1"}},{"base_weights":[1.3284318E-3,7.8591007E-1,-1.3741105E0,-1.1843878E-1,1.0755917E0,-3.5048658E-1,-6.926722E-2,-9.985542E-1,1.1016856E0,6.691632E-1,1.3051577E0,-6.8053044E-2,9.745257E-1,-1.0625867E0,1.4304353E0,1.3695751E0,3.2822543E-1,2.799822E-1,1.1676538E0,7.114542E-1,1.3418152E0,-7.344055E-1,1.3026636E0,-5.8200654E-2,3.8238957E-3,7.685514E-2,-5.0595213E-2,6.870444E-2,3.9809477E-2,-1.7061489E-2,6.853503E-2,-6.1661314E-2,3.633296E-2,6.3077286E-2,-8.713182E-2,7.681083E-2,3.8400001E-3,6.7596205E-2,4.452071E-2,-6.0496468E-2,3.205174E-2,1.449687E-2,6.704933E-2],"categories":[],"categories_nodes":[],"categories_segments":[],"categories_sizes":[],"default_left":[0,0,0,0,0,0,0,0,0,0,0,0,0,0,0,0,0,0,0,0,0,0,0,0,0,0,0,0,0,0,0,0,0,0,0,0,0,0,0,0,0,0,0],"id":12,"left_children":[1,3,5,7,9,11,-1,13,15,17,19,-1,21,23,25,27,29,31,33,35,37,39,41,-1,-1,-1,-1,-1,-1,-1,-1,-1,-1,-1,-1,-1,-1,-1,-1,-1,-1,-1,-1],"loss_changes":[2.3239432E4,3.59254E3,8.946484E1,3.5746208E3,9.681758E2,1.1682059E2,0E0,3.0228784E2,2.885951E2,7.273766E2,1.4347363E2,0E0,2.221135E1,2.1782788E2,1.46059265E1,1.586792E0,2.5183365E2,1.4255656E3,4.5148853E2,2.029983E2,2.7311523E1,5.1872168E0,8.59272E-1,0E0,0E0,0E0,0E0,0E0,0E0,0E0,0E0,0E0,0E0,0E0,0E0,0E0,0E0,0E0,0E0,0E0,0E0,0E0,0E0],"parents":[2147483647,0,0,1,1,2,2,3,3,4,4,5,5,7,7,8,8,9,9,10,10,12,12,13,13,14,14,15,15,16,16,17,17,18,18,19,19,20,20,21,21,22,22],"right_children":[2,4,6,8,10,12,-1,14,16,18,20,-1,22,24,26,28,30,32,34,36,38,40,42,-1,-1,-1,-1,-1,-1,-1,-1,-1,-1,-1,-1,-1,-1,-1,-1,-1,-1,-1,-1],"split_conditions":[1.16E2,6.4048904E1,1.45E2,1.9735454E-4,3.226E1,1.6605859E6,-6.926722E-2,1.0016263E0,1E0,2.6125295E-4,-2.0625624E-1,-6.8053044E-2,6.5424736E-3,1E0,1E0,1.5E1,1E0,-1.987214E-1,3E0,2E-1,3.6548858E6,1E0,-2.4947278E-2,-5.8200654E-2,3.8238957E-3,7.685514E-2,-5.0595213E-2,6.870444E-2,3.9809477E-2,-1.7061489E-2,6.853503E-2,-6.1661314E-2,3.633296E-2,6.3077286E-2,-8.713182E-2,7.681083E-2,3.8400001E-3,6.7596205E-2,4.452071E-2,-6.0496468E-2,3.205174E-2,1.449687E-2,6.704933E-2],"split_indices":[33,1,33,20,17,3,0,23,21,7,19,0,15,36,61,29,52,5,13,22,28,66,19,0,0,0,0,0,0,0,0,0,0,0,0,0,0,0,0,0,0,0,0],"split_type":[0,0,0,0,0,0,0,0,0,0,0,0,0,0,0,0,0,0,0,0,0,0,0,0,0,0,0,0,0,0,0,0,0,0,0,0,0,0,0,0,0,0,0],"sum_hessian":[2.1533057E4,1.3711903E4,7.8211533E3,3.326764E3,1.038514E4,8.525257E1,7.735901E3,1.9327732E3,1.3939906E3,3.7499907E3,6.6351484E3,4.834959E1,3.690298E1,1.8836786E3,4.9094563E1,1.034811E3,3.5917966E2,2.1067627E3,1.643228E3,3.8704196E2,6.2481064E3,5.745017E0,3.1157963E1,1.7296432E3,1.5403548E2,4.7395252E1,1.6993091E0,1.0253433E3,9.467698E0,2.1913106E2,1.4004858E2,4.7975046E2,1.6270123E3,1.5924198E3,5.0808224E1,1.6769458E2,2.1934738E2,6.109297E3,1.3880997E2,4.358506E0,1.3865105E0,1.4483905E0,2.9709572E1],"tree_param":{"num_deleted":"0","num_feature":"78","num_nodes":"43","size_leaf_vector":"1"}},{"base_weights":[-1.3494665E-3,7.6354146E-1,-1.3483994E0,-1.118971E-1,1.0457602E0,-3.3642486E-1,-6.797617E-2,-9.658783E-1,1.0589494E0,6.423574E-1,1.2769064E0,-6.674423E-2,8.8905454E-1,-1.2464204E0,-2.7182755E-1,-1.5569406E0,1.0965557E0,9.807655E-2,1.1122229E0,7.1887505E-1,1.3165992E0,-7.836325E-1,1.2517575E0,-6.6335924E-2,7.1017794E-2,1.0521316E-1,-5.467194E-2,-8.116793E-2,-1.2775003E-2,5.5766243E-2,-8.054879E-2,-1.5545867E-2,4.3113615E-2,7.142417E-2,1.4062963E-2,7.518936E-2,1.0433289E-2,6.59858E-2,-2.1759434E-2,-6.0169157E-2,3.048194E-2,-1.1378187E-2,6.5957546E-2],"categories":[],"categories_nodes":[],"categories_segments":[],"categories_sizes":[],"default_left":[0,0,0,0,0,0,0,0,0,0,0,0,0,0,0,0,0,0,0,0,0,0,0,0,0,0,0,0,0,0,0,0,0,0,0,0,0,0,0,0,0,0,0],"id":13,"left_children":[1,3,5,7,9,11,-1,13,15,17,19,-1,21,23,25,27,29,31,33,35,37,39,41,-1,-1,-1,-1,-1,-1,-1,-1,-1,-1,-1,-1,-1,-1,-1,-1,-1,-1,-1,-1],"loss_changes":[2.1649178E4,3.3112134E3,8.520801E1,3.2686643E3,9.441875E2,1.0405261E2,0E0,3.677119E2,1.3734387E2,9.4452795E2,1.4174121E2,0E0,2.4243628E1,2.9008032E2,1.0670371E3,1.3100281E0,7.090076E1,5.3549866E2,5.205486E2,1.7188376E2,3.340332E1,5.089289E0,3.4801025E0,0E0,0E0,0E0,0E0,0E0,0E0,0E0,0E0,0E0,0E0,0E0,0E0,0E0,0E0,0E0,0E0,0E0,0E0,0E0,0E0],"parents":[2147483647,0,0,1,1,2,2,3,3,4,4,5,5,7,7,8,8,9,9,10,10,12,12,13,13,14,14,15,15,16,16,17,17,18,18,19,19,20,20,21,21,22,22],"right_children":[2,4,6,8,10,12,-1,14,16,18,20,-1,22,24,26,28,30,32,34,36,38,40,42,-1,-1,-1,-1,-1,-1,-1,-1,-1,-1,-1,-1,-1,-1,-1,-1,-1,-1,-1,-1],"split_conditions":[1.16E2,3.479425E-3,1.45E2,1.9735454E-4,3.226E1,1.823811E6,-6.797617E-2,1E0,-3.502541E-1,1E0,-1.9636025E-1,-6.674423E-2,6.5424736E-3,1.0016263E0,-1.74E2,1.523866E4,1E0,1E0,-1.74E2,1E0,4.0734756E1,1E0,-3.745847E-2,-6.6335924E-2,7.1017794E-2,1.0521316E-1,-5.467194E-2,-8.116793E-2,-1.2775003E-2,5.5766243E-2,-8.054879E-2,-1.5545867E-2,4.3113615E-2,7.142417E-2,1.4062963E-2,7.518936E-2,1.0433289E-2,6.59858E-2,-2.1759434E-2,-6.0169157E-2,3.048194E-2,-1.1378187E-2,6.5957546E-2],"split_indices":[33,0,33,20,17,9,0,30,19,30,19,0,15,23,33,17,66,56,33,23,26,53,19,0,0,0,0,0,0,0,0,0,0,0,0,0,0,0,0,0,0,0,0],"split_type":[0,0,0,0,0,0,0,0,0,0,0,0,0,0,0,0,0,0,0,0,0,0,0,0,0,0,0,0,0,0,0,0,0,0,0,0,0,0,0,0,0,0,0],"sum_hessian":[2.1009559E4,1.3400711E4,7.608848E3,3.267031E3,1.013368E4,8.306875E1,7.5257793E3,1.8892456E3,1.3777854E3,3.6927568E3,6.440923E3,4.5725006E1,3.734374E1,1.3448486E3,5.443969E2,1.89539E1,1.3588314E3,1.711456E3,1.9813008E3,4.2898923E2,6.0119336E3,6.447785E0,3.0895954E1,1.306026E3,3.882263E1,1.3947516E2,4.0492175E2,1.7798227E1,1.1556727E0,1.3500607E3,8.770817E0,1.1151996E3,5.9625635E2,1.4345858E3,5.46715E2,1.6823186E2,2.6075735E2,6.001503E3,1.0430893E1,5.059731E0,1.3880543E0,1.2426416E0,2.9653313E1],"tree_param":{"num_deleted":"0","num_feature":"78","num_nodes":"43","size_leaf_vector":"1"}},{"base_weights":[-2.920301E-4,7.427416E-1,-1.3244773E0,3.673001E-2,1.1150079E0,-3.1945893E-1,-6.6799454E-2,-7.863761E-1,7.283035E-1,5.476169E-1,1.2078341E0,-6.557303E-2,9.203832E-1,-1.1528159E0,-5.5145837E-2,1.1384271E0,1.5575708E-1,-8.183986E-2,1.0850012E0,1.2142847E0,-8.579776E-2,-8.460891E-1,1.2852286E0,-6.3089736E-2,5.6688853E-2,7.764163E-2,-4.1250847E-2,2.6419804E-2,6.1857905E-2,-7.484199E-2,2.9824749E-2,-2.5882054E-2,7.505686E-2,6.43282E-2,-5.9739172E-2,5.3330597E-2,6.531139E-2,-5.9608985E-2,2.60221E-2,6.541727E-2,2.2289954E-2],"categories":[],"categories_nodes":[],"categories_segments":[],"categories_sizes":[],"default_left":[0,0,0,0,0,0,0,0,0,0,0,0,0,0,0,0,0,0,0,0,0,0,0,0,0,0,0,0,0,0,0,0,0,0,0,0,0,0,0,0,0],"id":14,"left_children":[1,3,5,7,9,11,-1,13,15,17,19,-1,21,23,25,27,29,31,33,35,-1,37,39,-1,-1,-1,-1,-1,-1,-1,-1,-1,-1,-1,-1,-1,-1,-1,-1,-1,-1],"loss_changes":[2.0094492E4,3.43829E3,8.450098E1,2.5721453E3,4.5048242E2,1.0506745E2,0E0,5.5275195E2,5.763992E2,4.0808426E2,1.4090332E2,0E0,2.5656113E1,3.4389893E2,8.551953E2,8.550354E1,7.4816113E2,3.8463202E2,3.0056366E2,9.833203E1,0E0,3.9919424E0,3.755188E-2,0E0,0E0,0E0,0E0,0E0,0E0,0E0,0E0,0E0,0E0,0E0,0E0,0E0,0E0,0E0,0E0,0E0,0E0],"parents":[2147483647,0,0,1,1,2,2,3,3,4,4,5,5,7,7,8,8,9,9,10,10,12,12,13,13,14,14,15,15,16,16,17,17,18,18,19,19,21,21,22,22],"right_children":[2,4,6,8,10,12,-1,14,16,18,20,-1,22,24,26,28,30,32,34,36,-1,38,40,-1,-1,-1,-1,-1,-1,-1,-1,-1,-1,-1,-1,-1,-1,-1,-1,-1,-1],"split_conditions":[1.16E2,1E0,1.45E2,7.4272144E5,8.057594E5,1.6186464E6,-6.6799454E-2,1E0,2E0,1E0,1.2E1,-6.557303E-2,6.5424736E-3,1.0016263E0,-1.74E2,-1.6083762E6,2.0033166E0,1E0,-5E1,1E0,-8.579776E-2,1E0,1E0,-6.3089736E-2,5.6688853E-2,7.764163E-2,-4.1250847E-2,2.6419804E-2,6.1857905E-2,-7.484199E-2,2.9824749E-2,-2.5882054E-2,7.505686E-2,6.43282E-2,-5.9739172E-2,5.3330597E-2,6.531139E-2,-5.9608985E-2,2.60221E-2,6.541727E-2,2.2289954E-2],"split_indices":[33,60,33,3,27,3,0,30,0,30,13,0,15,23,33,28,11,62,33,30,0,66,38,0,0,0,0,0,0,0,0,0,0,0,0,0,0,0,0,0,0],"split_type":[0,0,0,0,0,0,0,0,0,0,0,0,0,0,0,0,0,0,0,0,0,0,0,0,0,0,0,0,0,0,0,0,0,0,0,0,0,0,0,0,0],"sum_hessian":[2.0421014E4,1.308124E4,7.3397734E3,4.5165674E3,8.564674E3,8.3444466E1,7.256329E3,2.062115E3,2.4544524E3,1.2051587E3,7.3595146E3,4.6323288E1,3.7121178E1,1.3733263E3,6.8878864E2,1.4294951E3,1.0249572E3,5.5542175E2,6.4973694E2,7.343897E3,1.5617744E1,6.12872E0,3.0992458E1,1.311279E3,6.2047195E1,2.226783E2,4.6611035E2,2.0001448E2,1.2294807E3,2.152935E2,8.096637E2,4.360485E2,1.1937326E2,5.9735834E2,5.2378628E1,2.8227622E3,4.521135E3,4.9920177E0,1.1367023E0,2.96182E1,1.3742571E0],"tree_param":{"num_deleted":"0","num_feature":"78","num_nodes":"41","size_leaf_vector":"1"}},{"base_weights":[-4.029069E-3,-6.962364E-1,6.632833E-1,-1.1207006E0,7.084524E-2,-1.9169201E-1,9.811181E-1,-1.1695153E0,4.3914907E-2,-2.909317E-1,1.1301117E0,-5.105244E-1,1.1901706E0,5.613046E-1,1.2708066E0,-1.2388622E0,-3.021323E-1,-5.6893116E-1,8.725285E-1,-8.389321E-1,2.7447414E-1,1.232123E0,-1.4690284E0,-1.0944573E0,7.3560506E-1,1.2423979E0,3.2946348E-1,3.0344662E-1,6.958645E-2,1.296004E0,1.0801381E0,-6.361454E-2,-3.7175905E-2,-3.8303368E-2,5.922822E-2,-5.4924555E-2,4.3132756E-2,5.596001E-2,-7.388847E-2,-5.0845224E-2,5.27465E-2,-3.4681402E-2,7.926972E-2,6.3182205E-2,-8.390012E-2,-8.1403315E-2,1.1877581E-2,-5.845067E-2,1.0330731E-1,6.1058637E-2,9.188681E-3,6.26124E-2,-5.210864E-2,-6.1336823E-2,6.2137883E-2,-9.258234E-3,6.89806E-2,6.484588E-2,-3.8407307E-2,5.694248E-2,-8.604666E-2],"categories":[],"categories_nodes":[],"categories_segments":[],"categories_sizes":[],"default_left":[0,0,0,0,0,0,0,0,0,0,0,0,0,0,0,0,0,0,0,0,0,0,0,0,0,0,0,0,0,0,0,0,0,0,0,0,0,0,0,0,0,0,0,0,0,0,0,0,0,0,0,0,0,0,0,0,0,0,0,0,0],"id":15,"left_children":[1,3,5,7,9,11,13,15,17,19,21,23,25,27,29,31,33,35,37,39,41,43,45,47,49,51,53,55,-1,57,59,-1,-1,-1,-1,-1,-1,-1,-1,-1,-1,-1,-1,-1,-1,-1,-1,-1,-1,-1,-1,-1,-1,-1,-1,-1,-1,-1,-1,-1,-1],"loss_changes":[9.1856455E3,3.1782012E3,2.7515664E3,3.572876E2,1.3331803E3,1.2098927E3,8.9695996E2,3.6239648E2,1.2935535E2,8.0377106E2,2.3663684E2,1.6241177E3,2.2734924E1,6.4530206E2,1.9579102E1,9.1521484E1,3.097734E2,1.1199077E2,6.442912E1,4.4504468E2,1.6219681E3,8.034448E1,9.588676E0,3.6046387E2,1.9067038E2,1.2220032E1,4.5321175E1,1.2108774E3,0E0,8.260254E0,8.677222E1,0E0,0E0,0E0,0E0,0E0,0E0,0E0,0E0,0E0,0E0,0E0,0E0,0E0,0E0,0E0,0E0,0E0,0E0,0E0,0E0,0E0,0E0,0E0,0E0,0E0,0E0,0E0,0E0,0E0,0E0],"parents":[2147483647,0,0,1,1,2,2,3,3,4,4,5,5,6,6,7,7,8,8,9,9,10,10,11,11,12,12,13,13,14,14,15,15,16,16,17,17,18,18,19,19,20,20,21,21,22,22,23,23,24,24,25,25,26,26,27,27,29,29,30,30],"right_children":[2,4,6,8,10,12,14,16,18,20,22,24,26,28,30,32,34,36,38,40,42,44,46,48,50,52,54,56,-1,58,60,-1,-1,-1,-1,-1,-1,-1,-1,-1,-1,-1,-1,-1,-1,-1,-1,-1,-1,-1,-1,-1,-1,-1,-1,-1,-1,-1,-1,-1,-1],"split_conditions":[1E0,5.665966E5,6.4048904E1,1.8030276E-4,1.0838959E-3,1.586995E-4,4.358291E-3,1E0,1E0,1E0,7.537422E5,8.146802E-5,3.0289618E7,1E0,2E0,1E0,1E0,1E0,4E0,8E0,1E0,2.910528E0,1E0,1E0,1E0,2.343223E-2,1E0,1E0,6.958645E-2,1E0,4.3473465E6,-6.361454E-2,-3.7175905E-2,-3.8303368E-2,5.922822E-2,-5.4924555E-2,4.3132756E-2,5.596001E-2,-7.388847E-2,-5.0845224E-2,5.27465E-2,-3.4681402E-2,7.926972E-2,6.3182205E-2,-8.390012E-2,-8.1403315E-2,1.1877581E-2,-5.845067E-2,1.0330731E-1,6.1058637E-2,9.188681E-3,6.26124E-2,-5.210864E-2,-6.1336823E-2,6.2137883E-2,-9.258234E-3,6.89806E-2,6.484588E-2,-3.8407307E-2,5.694248E-2,-8.604666E-2],"split_indices":[60,2,1,6,19,25,24,36,59,62,28,21,18,61,0,34,75,66,26,11,61,0,36,61,21,21,62,62,0,7,28,0,0,0,0,0,0,0,0,0,0,0,0,0,0,0,0,0,0,0,0,0,0,0,0,0,0,0,0,0,0],"split_type":[0,0,0,0,0,0,0,0,0,0,0,0,0,0,0,0,0,0,0,0,0,0,0,0,0,0,0,0,0,0,0,0,0,0,0,0,0,0,0,0,0,0,0,0,0,0,0,0,0,0,0,0,0,0,0,0,0,0,0,0,0],"sum_hessian":[1.9883861E4,9.759856E3,1.0124005E4,6.2828076E3,3.477049E3,2.743741E3,7.380263E3,6.0300547E3,2.5275294E2,2.5923835E3,8.846653E2,2.2298792E3,5.1386176E2,3.0145493E3,4.365714E3,5.583248E3,4.4680655E2,1.4547351E2,1.0727943E2,1.316209E3,1.2761747E3,8.517612E2,3.2904057E1,1.5184564E3,7.1142285E2,4.840466E2,2.981518E1,2.3013228E3,7.1322656E2,3.8509966E3,5.147176E2,5.2288096E3,3.5443832E2,3.4090823E2,1.058983E2,1.0636177E2,3.911174E1,9.756361E1,9.715824E0,1.2035688E3,1.12640205E2,7.343414E2,5.4183325E2,8.431939E2,8.567317E0,3.0141178E1,2.7628796E0,1.4840784E3,3.4378128E1,3.7778723E2,3.336356E2,4.8241852E2,1.6280862E0,1.0899636E1,1.8915543E1,1.5832897E3,7.180331E2,3.8496643E3,1.3322271E0,5.0473166E2,9.985936E0],"tree_param":{"num_deleted":"0","num_feature":"78","num_nodes":"61","size_leaf_vector":"1"}},{"base_weights":[-4.6934185E-4,-6.753825E-1,6.462195E-1,-1.0999848E0,4.079568E-2,-1.9758925E-1,9.625434E-1,-1.1584408E0,3.3270562E-1,7.2975427E-1,-5.331464E-1,-7.3369074E-1,1.195438E0,5.599911E-1,1.2480416E0,-1.2055445E0,-1.4190731E-2,1.2981497E0,-8.625672E-1,2.1343155E-1,1.2293534E0,-7.917641E-1,1.1835569E0,-9.8138726E-1,1.5368874E0,-6.141339E-2,1.2133557E0,3.1382367E-1,6.834736E-2,1.2749331E0,1.0447671E0,-6.2381327E-2,-2.9780572E-2,-3.2356936E-2,6.0453214E-2,6.5465115E-2,3.403438E-3,8.385765E-2,-6.804691E-2,-1.5213922E-2,6.3793026E-2,6.27177E-2,-8.160389E-2,-5.114938E-2,5.451094E-2,7.101764E-2,-7.481901E-2,-5.523069E-2,7.643095E-2,9.7626634E-2,7.1680054E-2,6.461757E-2,4.4360325E-2,-7.3757167E-3,6.76934E-2,6.379224E-2,-3.755008E-2,5.517782E-2,-8.4251896E-2],"categories":[],"categories_nodes":[],"categories_segments":[],"categories_sizes":[],"default_left":[0,0,0,0,0,0,0,0,0,0,0,0,0,0,0,0,0,0,0,0,0,0,0,0,0,0,0,0,0,0,0,0,0,0,0,0,0,0,0,0,0,0,0,0,0,0,0,0,0,0,0,0,0,0,0,0,0,0,0],"id":16,"left_children":[1,3,5,7,9,11,13,15,17,19,21,23,25,27,29,31,33,35,37,39,41,43,45,47,49,-1,51,53,-1,55,57,-1,-1,-1,-1,-1,-1,-1,-1,-1,-1,-1,-1,-1,-1,-1,-1,-1,-1,-1,-1,-1,-1,-1,-1,-1,-1,-1,-1],"loss_changes":[8.461055E3,2.8846025E3,2.642626E3,4.9913184E2,1.3968728E3,2.0173522E3,8.268633E2,3.0838867E2,2.7141855E2,4.1386188E2,8.5655975E2,1.0984386E3,3.409314E1,5.934557E2,2.1692383E1,1.403169E2,1.7672977E2,1.6939392E0,1.3551305E2,4.352995E2,6.0401123E1,7.302191E2,1.6250067E2,5.457971E2,5.4533386E0,0E0,1.8066895E1,1.0999886E3,0E0,7.820801E0,8.172467E1,0E0,0E0,0E0,0E0,0E0,0E0,0E0,0E0,0E0,0E0,0E0,0E0,0E0,0E0,0E0,0E0,0E0,0E0,0E0,0E0,0E0,0E0,0E0,0E0,0E0,0E0,0E0,0E0],"parents":[2147483647,0,0,1,1,2,2,3,3,4,4,5,5,6,6,7,7,8,8,9,9,10,10,11,11,12,12,13,13,14,14,15,15,16,16,17,17,18,18,19,19,20,20,21,21,22,22,23,23,24,24,26,26,27,27,29,29,30,30],"right_children":[2,4,6,8,10,12,14,16,18,20,22,24,26,28,30,32,34,36,38,40,42,44,46,48,50,-1,52,54,-1,56,58,-1,-1,-1,-1,-1,-1,-1,-1,-1,-1,-1,-1,-1,-1,-1,-1,-1,-1,-1,-1,-1,-1,-1,-1,-1,-1,-1,-1],"split_conditions":[1E0,7.708661E5,6.4048904E1,2.0035596E-1,2E0,2.0035596E-1,4.358291E-3,2.6125295E-4,1E0,1.7761507E-3,8E0,1E0,8.543729E4,1E0,2E0,1E0,1E0,2E0,9.963166E-1,2.6125295E-4,1.1873779E6,8.146802E-5,1.9654868E7,1E0,8.146802E-5,-6.141339E-2,1E0,1E0,6.834736E-2,1E0,4.3473465E6,-6.2381327E-2,-2.9780572E-2,-3.2356936E-2,6.0453214E-2,6.5465115E-2,3.403438E-3,8.385765E-2,-6.804691E-2,-1.5213922E-2,6.3793026E-2,6.27177E-2,-8.160389E-2,-5.114938E-2,5.451094E-2,7.101764E-2,-7.481901E-2,-5.523069E-2,7.643095E-2,9.7626634E-2,7.1680054E-2,6.461757E-2,4.4360325E-2,-7.3757167E-3,6.76934E-2,6.379224E-2,-3.755008E-2,5.517782E-2,-8.4251896E-2],"split_indices":[60,9,1,22,0,22,24,7,21,19,11,61,28,61,0,36,75,24,22,7,28,21,1,62,21,0,21,62,0,7,28,0,0,0,0,0,0,0,0,0,0,0,0,0,0,0,0,0,0,0,0,0,0,0,0,0,0,0,0],"split_type":[0,0,0,0,0,0,0,0,0,0,0,0,0,0,0,0,0,0,0,0,0,0,0,0,0,0,0,0,0,0,0,0,0,0,0,0,0,0,0,0,0,0,0,0,0,0,0,0,0,0,0,0,0,0,0,0,0,0,0],"sum_hessian":[1.9383688E4,9.484842E3,9.898846E3,5.954216E3,3.5306257E3,2.69914E3,7.199706E3,5.720982E3,2.3323402E2,1.6044166E3,1.9262091E3,1.9493954E3,7.4974445E2,2.9886594E3,4.2110464E3,5.494735E3,2.2624675E2,1.2897359E2,1.0426044E2,7.8970465E2,8.1471204E2,1.6744896E3,2.517195E2,1.7581655E3,1.9122984E2,5.0062385E0,7.447382E2,2.291125E3,6.975346E2,3.714392E3,4.9665457E2,5.139118E3,3.556166E2,1.4940907E2,7.683767E1,1.2775092E2,1.2226648E0,1.6714968E1,8.754546E1,5.31449E2,2.5825568E2,8.082123E2,6.4997773E0,1.4916763E3,1.8281334E2,2.3171542E2,2.0004074E1,1.676423E3,8.174257E1,3.4498165E1,1.5673169E2,5.971436E2,1.475946E2,1.5877128E3,7.034121E2,3.7130913E3,1.3007904E0,4.8676727E2,9.887308E0],"tree_param":{"num_deleted":"0","num_feature":"78","num_nodes":"59","size_leaf_vector":"1"}},{"base_weights":[-2.3165611E-4,7.04271E-1,-1.2747117E0,5.203454E-2,1.0523461E0,-3.3452368E-1,-6.425024E-2,-7.579157E-1,6.487929E-1,5.4057163E-1,1.1544207E0,-6.2677436E-2,7.6507217E-1,-9.413671E-1,5.458491E-1,2.1478733E-1,1.0637047E0,-6.457393E-2,1.0514129E0,1.1603532E0,-8.1025794E-2,-7.523245E-1,1.1362737E0,-5.08039E-2,5.537809E-2,-6.512072E-3,7.989023E-2,-4.5698438E-2,2.4443846E-2,6.855219E-2,2.1698734E-2,-3.1010726E-2,4.987038E-2,7.033036E-2,1.4256735E-2,4.8329704E-2,6.1767686E-2,-5.749296E-2,3.9391402E-2,-2.8989304E-2,6.1695725E-2],"categories":[],"categories_nodes":[],"categories_segments":[],"categories_sizes":[],"default_left":[0,0,0,0,0,0,0,0,0,0,0,0,0,0,0,0,0,0,0,0,0,0,0,0,0,0,0,0,0,0,0,0,0,0,0,0,0,0,0,0,0],"id":17,"left_children":[1,3,5,7,9,11,-1,13,15,17,19,-1,21,23,25,27,29,31,33,35,-1,37,39,-1,-1,-1,-1,-1,-1,-1,-1,-1,-1,-1,-1,-1,-1,-1,-1,-1,-1],"loss_changes":[1.6946494E4,2.7594648E3,6.459277E1,2.0453248E3,4.1339258E2,7.585509E1,0E0,4.298794E2,4.385066E2,4.0805228E2,1.10640625E2,0E0,2.021015E1,2.420852E2,1.581494E2,3.692468E2,2.404314E2,3.5765475E2,1.9439746E2,9.461719E1,0E0,5.409493E0,5.4082413E0,0E0,0E0,0E0,0E0,0E0,0E0,0E0,0E0,0E0,0E0,0E0,0E0,0E0,0E0,0E0,0E0,0E0,0E0],"parents":[2147483647,0,0,1,1,2,2,3,3,4,4,5,5,7,7,8,8,9,9,10,10,12,12,13,13,14,14,15,15,16,16,17,17,18,18,19,19,21,21,22,22],"right_children":[2,4,6,8,10,12,-1,14,16,18,20,-1,22,24,26,28,30,32,34,36,-1,38,40,-1,-1,-1,-1,-1,-1,-1,-1,-1,-1,-1,-1,-1,-1,-1,-1,-1,-1],"split_conditions":[1.16E2,1E0,1.45E2,3.8862812E5,1.0305405E6,1.823811E6,-6.425024E-2,1E0,1E0,1E0,1.2E1,-6.2677436E-2,6.5424736E-3,1.0016263E0,1E0,1.0041618E0,-1.74E2,8.146802E-5,-1.74E2,1.0834506E6,-8.1025794E-2,1E0,-3.745847E-2,-5.08039E-2,5.537809E-2,-6.512072E-3,7.989023E-2,-4.5698438E-2,2.4443846E-2,6.855219E-2,2.1698734E-2,-3.1010726E-2,4.987038E-2,7.033036E-2,1.4256735E-2,4.8329704E-2,6.1767686E-2,-5.749296E-2,3.9391402E-2,-2.8989304E-2,6.1695725E-2],"split_indices":[33,60,33,2,27,9,0,36,30,30,13,0,15,23,75,29,33,21,33,2,0,53,19,0,0,0,0,0,0,0,0,0,0,0,0,0,0,0,0,0,0],"split_type":[0,0,0,0,0,0,0,0,0,0,0,0,0,0,0,0,0,0,0,0,0,0,0,0,0,0,0,0,0,0,0,0,0,0,0,0,0,0,0,0,0],"sum_hessian":[1.8872014E4,1.215401E4,6.7180034E3,4.2295903E3,7.924419E3,7.311367E1,6.6448896E3,1.7941758E3,2.4354146E3,1.3187681E3,6.605651E3,3.9750675E1,3.3363E1,1.5731039E3,2.2107187E2,1.1910605E3,1.2443541E3,6.0406396E2,7.1470404E2,6.5921396E3,1.3511235E1,6.3556523E0,2.7007347E1,1.5182474E3,5.4856407E1,1.3511183E2,8.596003E1,2.3225462E2,9.588059E2,8.3544104E2,4.0891312E2,3.968458E2,2.0721817E2,4.8777106E2,2.2693301E2,1.8434905E3,4.7486494E3,5.253153E0,1.1024995E0,1.1881073E0,2.5819239E1],"tree_param":{"num_deleted":"0","num_feature":"78","num_nodes":"41","size_leaf_vector":"1"}},{"base_weights":[1.805293E-4,-6.445938E-1,6.2005883E-1,-1.0551478E0,6.665445E-2,-1.8139853E-1,9.210929E-1,-1.1157377E0,3.8078624E-1,-3.2473108E-1,9.41292E-1,-6.983031E-1,1.1573533E0,5.153252E-1,1.216106E0,-1.1657143E0,-9.493343E-3,1.2860636E0,-7.666998E-1,-5.735986E-1,7.763564E-1,1.0591528E0,-1.4709487E0,-1.0547326E0,4.967244E-1,-6.0104936E-2,1.1761361E0,2.7830064E-1,6.580442E-2,9.9485344E-1,1.2371976E0,-5.899786E-2,9.024135E-3,3.3830997E-2,-3.7462533E-2,6.464619E-2,1.8763253E-2,8.324203E-2,-6.616334E-2,1.658724E-2,-4.22187E-2,1.7399272E-2,7.1438245E-2,-5.9923586E-2,5.542933E-2,-1.0962569E-1,-5.867023E-2,-5.530354E-2,9.250246E-2,5.502513E-2,-1.7742405E-2,6.3002385E-2,4.2450346E-2,-3.379278E-3,4.8877366E-2,5.3478718E-2,6.2952223E-3,6.2355436E-2,5.038024E-2],"categories":[],"categories_nodes":[],"categories_segments":[],"categories_sizes":[],"default_left":[0,0,0,0,0,0,0,0,0,0,0,0,0,0,0,0,0,0,0,0,0,0,0,0,0,0,0,0,0,0,0,0,0,0,0,0,0,0,0,0,0,0,0,0,0,0,0,0,0,0,0,0,0,0,0,0,0,0,0],"id":18,"left_children":[1,3,5,7,9,11,13,15,17,19,21,23,25,27,29,31,33,35,37,39,41,43,45,47,49,-1,51,53,-1,55,57,-1,-1,-1,-1,-1,-1,-1,-1,-1,-1,-1,-1,-1,-1,-1,-1,-1,-1,-1,-1,-1,-1,-1,-1,-1,-1,-1,-1],"loss_changes":[7.341942E3,2.629269E3,2.2597554E3,4.9710352E2,1.128653E3,1.7710232E3,8.1439307E2,3.0284082E2,2.4185733E2,6.2465186E2,2.9134082E2,7.868743E2,3.3009888E1,5.439714E2,1.7161621E1,1.0070459E2,1.21196236E2,3.2704163E-1,1.4143867E2,4.5589465E2,1.1698335E2,1.0984595E2,7.7110977E0,2.1415356E2,2.1881094E2,0E0,1.8359924E1,5.355901E2,0E0,2.2469696E1,6.9228516E0,0E0,0E0,0E0,0E0,0E0,0E0,0E0,0E0,0E0,0E0,0E0,0E0,0E0,0E0,0E0,0E0,0E0,0E0,0E0,0E0,0E0,0E0,0E0,0E0,0E0,0E0,0E0,0E0],"parents":[2147483647,0,0,1,1,2,2,3,3,4,4,5,5,6,6,7,7,8,8,9,9,10,10,11,11,12,12,13,13,14,14,15,15,16,16,17,17,18,18,19,19,20,20,21,21,22,22,23,23,24,24,26,26,27,27,29,29,30,30],"right_children":[2,4,6,8,10,12,14,16,18,20,22,24,26,28,30,32,34,36,38,40,42,44,46,48,50,-1,52,54,-1,56,58,-1,-1,-1,-1,-1,-1,-1,-1,-1,-1,-1,-1,-1,-1,-1,-1,-1,-1,-1,-1,-1,-1,-1,-1,-1,-1,-1,-1],"split_conditions":[1E0,5.665966E5,6.4048904E1,2.0035596E-1,4.358291E-3,2.0035596E-1,4.358291E-3,1.8030276E-4,1E0,1E0,7.537422E5,8.146802E-5,8.543729E4,1E0,-1.754964E-1,1.0016263E0,2E0,5.7157097E0,9.963166E-1,1.183978E6,5.0057316E0,1.7796544E6,1E0,1E0,1E0,-6.0104936E-2,1E0,1.8030276E-4,6.580442E-2,1E0,2E0,-5.899786E-2,9.024135E-3,3.3830997E-2,-3.7462533E-2,6.464619E-2,1.8763253E-2,8.324203E-2,-6.616334E-2,1.658724E-2,-4.22187E-2,1.7399272E-2,7.1438245E-2,-5.9923586E-2,5.542933E-2,-1.0962569E-1,-5.867023E-2,-5.530354E-2,9.250246E-2,5.502513E-2,-1.7742405E-2,6.3002385E-2,4.2450346E-2,-3.379278E-3,4.8877366E-2,5.3478718E-2,6.2952223E-3,6.2355436E-2,5.038024E-2],"split_indices":[60,2,1,22,24,22,24,6,21,66,28,21,28,62,5,23,11,29,22,1,29,9,30,62,21,0,21,6,0,12,13,0,0,0,0,0,0,0,0,0,0,0,0,0,0,0,0,0,0,0,0,0,0,0,0,0,0,0,0],"split_type":[0,0,0,0,0,0,0,0,0,0,0,0,0,0,0,0,0,0,0,0,0,0,0,0,0,0,0,0,0,0,0,0,0,0,0,0,0,0,0,0,0,0,0,0,0,0,0,0,0,0,0,0,0,0,0,0,0,0,0],"sum_hessian":[1.8367477E4,9.002928E3,9.364549E3,5.707755E3,3.2951726E3,2.5570884E3,6.807461E3,5.476879E3,2.3087613E2,2.2769187E3,1.0182539E3,1.8451406E3,7.1194775E2,2.8669456E3,3.9405151E3,5.240094E3,2.3678456E2,1.2899127E2,1.0188486E2,1.8575537E3,4.1936484E2,9.713549E2,4.6899002E1,1.4213313E3,4.2380945E2,5.1252975E0,7.0682245E2,2.2131921E3,6.537534E2,3.4714084E2,3.5933745E3,5.185356E3,5.4738213E1,1.2289071E2,1.13893845E2,1.2761055E2,1.3807266E0,1.8606253E1,8.32786E1,4.2760886E2,1.429945E3,2.5407367E2,1.6529118E2,2.03153E1,9.510396E2,1.1833424E1,3.506558E1,1.3972557E3,2.407546E1,2.4781348E2,1.7599596E2,5.602592E2,1.4656323E2,1.4813417E3,7.3185046E2,3.194412E2,2.7699625E1,3.440426E3,1.5294846E2],"tree_param":{"num_deleted":"0","num_feature":"78","num_nodes":"59","size_leaf_vector":"1"}},{"base_weights":[-2.2157885E-3,-5.56741E-1,6.957821E-1,-8.586463E-1,6.786331E-1,1.60991E-1,1.1546292E0,-1.0667977E0,6.402221E-1,-1.9686446E-1,1.0251008E0,-2.748362E-1,6.425937E-1,1.1760055E0,-1.2021196E0,-1.1850537E0,-7.820287E-1,1.0860273E0,1.024318E-1,1.2280178E0,-8.1766886E-1,1.2466358E0,7.6638967E-1,5.673768E-1,-6.031392E-1,9.197738E-1,2.126368E-3,-9.091431E-1,1.1874785E0,-1.6868305E0,6.5345526E-1,-6.2144905E-2,-4.627381E-2,-4.843897E-2,7.4765526E-2,6.1104037E-2,3.4001612E-3,3.2793447E-2,-5.5848736E-2,6.681094E-2,-7.21732E-2,-5.755285E-2,5.6637347E-2,6.2749885E-2,-1.1953805E-3,-1.3495979E-2,5.435715E-2,-2.9515833E-2,4.862335E-2,-4.778493E-2,5.1691633E-2,4.720919E-2,-7.061763E-2,-6.478347E-2,3.2161575E-2,-8.539945E-2,3.868669E-2,6.1387416E-2,4.3661576E-2,-1.14657775E-1,-6.51884E-2,-4.6610545E-2,5.2236278E-2],"categories":[],"categories_nodes":[],"categories_segments":[],"categories_sizes":[],"default_left":[0,0,0,0,0,0,0,0,0,0,0,0,0,0,0,0,0,0,0,0,0,0,0,0,0,0,0,0,0,0,0,0,0,0,0,0,0,0,0,0,0,0,0,0,0,0,0,0,0,0,0,0,0,0,0,0,0,0,0,0,0,0,0],"id":19,"left_children":[1,3,5,7,9,11,13,15,17,19,21,23,25,27,29,31,33,35,37,39,41,43,45,47,49,51,53,55,57,59,61,-1,-1,-1,-1,-1,-1,-1,-1,-1,-1,-1,-1,-1,-1,-1,-1,-1,-1,-1,-1,-1,-1,-1,-1,-1,-1,-1,-1,-1,-1,-1,-1],"loss_changes":[6.928713E3,3.721197E3,1.9445688E3,2.5019385E3,5.946374E2,7.6858746E2,2.1629492E2,2.3614502E2,2.3441507E2,4.932476E2,7.9525024E1,5.319133E2,3.0878967E2,1.02214355E2,3.6030502E1,7.350928E1,8.812041E2,7.398193E1,3.0068964E2,5.0858414E1,2.5373068E2,8.049805E0,2.1647025E2,2.5369151E2,7.9959796E2,7.044446E1,4.388153E2,3.318284E1,5.2137695E1,4.226654E0,6.411292E0,0E0,0E0,0E0,0E0,0E0,0E0,0E0,0E0,0E0,0E0,0E0,0E0,0E0,0E0,0E0,0E0,0E0,0E0,0E0,0E0,0E0,0E0,0E0,0E0,0E0,0E0,0E0,0E0,0E0,0E0,0E0,0E0],"parents":[2147483647,0,0,1,1,2,2,3,3,4,4,5,5,6,6,7,7,8,8,9,9,10,10,11,11,12,12,13,13,14,14,15,15,16,16,17,17,18,18,19,19,20,20,21,21,22,22,23,23,24,24,25,25,26,26,27,27,28,28,29,29,30,30],"right_children":[2,4,6,8,10,12,14,16,18,20,22,24,26,28,30,32,34,36,38,40,42,44,46,48,50,52,54,56,58,60,62,-1,-1,-1,-1,-1,-1,-1,-1,-1,-1,-1,-1,-1,-1,-1,-1,-1,-1,-1,-1,-1,-1,-1,-1,-1,-1,-1,-1,-1,-1,-1,-1],"split_conditions":[7.688349E5,1.9735454E-4,4.358291E-3,2.6125295E-4,1E0,1E0,2.0892478E6,1E0,2E0,1E0,1E0,1.6156642E6,3E0,1.7315396E6,1E0,1E0,1E0,1E0,3.3333334E-1,5.2249846E0,1.6253548E7,4E0,2.0035596E-1,3.8741296E-4,6.2342806E0,1E0,3.005809E0,1E0,2E0,1E0,1.8030276E-4,-6.2144905E-2,-4.627381E-2,-4.843897E-2,7.4765526E-2,6.1104037E-2,3.4001612E-3,3.2793447E-2,-5.5848736E-2,6.681094E-2,-7.21732E-2,-5.755285E-2,5.6637347E-2,6.2749885E-2,-1.1953805E-3,-1.3495979E-2,5.435715E-2,-2.9515833E-2,4.862335E-2,-4.778493E-2,5.1691633E-2,4.720919E-2,-7.061763E-2,-6.478347E-2,3.2161575E-2,-8.539945E-2,3.868669E-2,6.1387416E-2,4.3661576E-2,-1.14657775E-1,-6.51884E-2,-4.6610545E-2,5.2236278E-2],"split_indices":[2,20,24,7,60,60,28,60,11,20,20,1,0,10,35,59,61,12,7,15,17,0,22,12,29,46,11,36,0,30,6,0,0,0,0,0,0,0,0,0,0,0,0,0,0,0,0,0,0,0,0,0,0,0,0,0,0,0,0,0,0,0,0],"split_type":[0,0,0,0,0,0,0,0,0,0,0,0,0,0,0,0,0,0,0,0,0,0,0,0,0,0,0,0,0,0,0,0,0,0,0,0,0,0,0,0,0,0,0,0,0,0,0,0,0,0,0,0,0,0,0,0,0,0,0,0,0,0,0],"sum_hessian":[1.7898992E4,9.974747E3,7.9242456E3,8.016058E3,1.958689E3,3.6599204E3,4.2643257E3,7.0388447E3,9.772132E2,5.554757E2,1.4032133E3,1.9214921E3,1.7384283E3,4.226491E3,3.7834282E1,4.9712666E3,2.0675784E3,5.3374335E2,4.4346988E2,1.6827335E2,3.8720236E2,7.538612E2,6.4935205E2,5.387304E2,1.3827616E3,1.2130227E3,5.2540564E2,2.2699995E1,4.203791E3,3.0070297E1,7.763987E0,4.0622463E3,9.090201E2,1.9114099E3,1.5616852E2,4.706439E2,6.309948E1,3.0534763E2,1.3812225E2,1.6220357E2,6.0697875E0,3.3102884E2,5.6173527E1,7.489444E2,4.916798E0,1.5351733E2,4.958347E2,1.3952615E2,3.9920428E2,1.1380686E3,2.4469293E2,1.2010466E3,1.1976E1,1.7338985E2,3.520158E2,1.5382937E1,7.317058E0,3.7237048E3,4.800864E2,9.71178E0,2.0358517E1,1.2630031E0,6.5009837E0],"tree_param":{"num_deleted":"0","num_feature":"78","num_nodes":"63","size_leaf_vector":"1"}},{"base_weights":[4.5199547E-4,-5.428973E-1,6.823005E-1,-9.758655E-1,8.6316705E-2,2.266458E-1,1.1840986E0,-1.0294008E0,3.6927253E-1,-1.7253463E-1,1.3230224E0,-2.1152145E-1,6.812327E-1,1.2028896E0,-1.2613468E0,-1.0613772E0,4.986291E-1,-6.462515E-2,8.183388E-1,-4.9677512E-1,1.1001097E0,6.477216E-2,1.5546517E0,-3.748409E-1,1.1361398E0,4.7584087E-1,6.484912E-2,1.2101853E0,2.4324852E-1,-1.5620211E0,7.5360394E-1,-5.595022E-2,-1.4111482E-2,5.6131072E-2,-7.862003E-2,6.684934E-2,1.4116948E-2,-3.3297904E-2,5.7997014E-2,-5.991111E-2,5.598424E-2,9.096705E-2,6.086084E-2,2.8534418E-2,-3.7761938E-2,7.314603E-2,-6.0337007E-2,4.0436793E-2,-1.1362356E-2,-5.2259024E-2,6.0573995E-2,-9.2041105E-2,5.9071578E-2,-9.842956E-2,-6.2423803E-2,4.385895E-2,8.415494E-3],"categories":[],"categories_nodes":[],"categories_segments":[],"categories_sizes":[],"default_left":[0,0,0,0,0,0,0,0,0,0,0,0,0,0,0,0,0,0,0,0,0,0,0,0,0,0,0,0,0,0,0,0,0,0,0,0,0,0,0,0,0,0,0,0,0,0,0,0,0,0,0,0,0,0,0,0,0],"id":20,"left_children":[1,3,5,7,9,11,13,15,17,19,21,23,25,27,29,31,33,-1,35,37,39,-1,41,43,45,47,-1,49,51,53,55,-1,-1,-1,-1,-1,-1,-1,-1,-1,-1,-1,-1,-1,-1,-1,-1,-1,-1,-1,-1,-1,-1,-1,-1,-1,-1],"loss_changes":[6.4541255E3,2.6413162E3,1.7662097E3,4.1396582E2,1.2656255E3,8.069043E2,1.7045898E2,2.704209E2,1.6565265E2,1.3497122E3,2.3572998E0,4.545263E2,2.5082306E2,2.5253906E1,1.8457634E1,2.426294E2,1.4896188E2,0E0,4.8063896E1,7.3131195E2,3.1223267E1,0E0,3.8417358E0,6.625645E2,1.7268878E2,3.4949323E2,0E0,1.1839844E1,5.845426E1,7.4767685E-1,1.6902375E-1,0E0,0E0,0E0,0E0,0E0,0E0,0E0,0E0,0E0,0E0,0E0,0E0,0E0,0E0,0E0,0E0,0E0,0E0,0E0,0E0,0E0,0E0,0E0,0E0,0E0,0E0],"parents":[2147483647,0,0,1,1,2,2,3,3,4,4,5,5,6,6,7,7,8,8,9,9,10,10,11,11,12,12,13,13,14,14,15,15,16,16,18,18,19,19,20,20,22,22,23,23,24,24,25,25,27,27,28,28,29,29,30,30],"right_children":[2,4,6,8,10,12,14,16,18,20,22,24,26,28,30,32,34,-1,36,38,40,-1,42,44,46,48,-1,50,52,54,56,-1,-1,-1,-1,-1,-1,-1,-1,-1,-1,-1,-1,-1,-1,-1,-1,-1,-1,-1,-1,-1,-1,-1,-1,-1,-1],"split_conditions":[7.688349E5,1E0,1.0838959E-3,2.0035596E-1,1E0,1E0,1.7657561E6,1.0016263E0,8.3691944E5,2.0035596E-1,1E0,8E0,1E0,2E0,6.0081844E0,1E0,3.4244995E6,-6.462515E-2,1E0,1.0016263E0,8.32574E4,6.477216E-2,3.479425E-3,1.631313E6,2.4736552E6,3E0,6.484912E-2,6.331387E-3,9.894906E6,1E0,1.03439806E6,-5.595022E-2,-1.4111482E-2,5.6131072E-2,-7.862003E-2,6.684934E-2,1.4116948E-2,-3.3297904E-2,5.7997014E-2,-5.991111E-2,5.598424E-2,9.096705E-2,6.086084E-2,2.8534418E-2,-3.7761938E-2,7.314603E-2,-6.0337007E-2,4.0436793E-2,-1.1362356E-2,-5.2259024E-2,6.0573995E-2,-9.2041105E-2,5.9071578E-2,-9.842956E-2,-6.2423803E-2,4.385895E-2,8.415494E-3],"split_indices":[2,60,19,22,61,60,28,23,17,22,51,11,61,13,11,52,16,0,22,23,16,0,0,27,3,0,0,13,2,30,2,0,0,0,0,0,0,0,0,0,0,0,0,0,0,0,0,0,0,0,0,0,0,0,0,0,0],"split_type":[0,0,0,0,0,0,0,0,0,0,0,0,0,0,0,0,0,0,0,0,0,0,0,0,0,0,0,0,0,0,0,0,0,0,0,0,0,0,0,0,0,0,0,0,0,0,0,0,0,0,0,0,0,0,0,0,0],"sum_hessian":[1.7418895E4,9.694097E3,7.7247974E3,5.7422485E3,3.9518477E3,4.049304E3,3.6754934E3,5.522685E3,2.195635E2,3.2685725E3,6.832751E2,2.0621619E3,1.987142E3,3.6479705E3,2.7523E1,5.4097827E3,1.1290228E2,4.631097E1,1.7325253E2,2.605389E3,6.631835E2,6.1646735E2,6.680773E1,1.83991E3,2.2225189E2,1.4914282E3,4.9571378E2,3.6201865E3,2.7783918E1,2.414485E1,3.3781505E0,5.036814E3,3.729689E2,8.711335E1,2.5788935E1,8.729202E1,8.596052E1,2.3645232E3,2.4086588E2,5.0922E0,6.580913E2,3.497843E1,3.1829298E1,5.2771185E2,1.3121981E3,1.953767E2,2.6875208E1,1.0120819E3,4.7934625E2,1.614342E0,3.618572E3,8.326159E0,1.945776E1,8.21459E0,1.5930259E1,2.3774862E0,1.0006641E0],"tree_param":{"num_deleted":"0","num_feature":"78","num_nodes":"57","size_leaf_vector":"1"}},{"base_weights":[-3.7933597E-3,6.547214E-1,-1.2261145E0,7.582869E-2,9.8108757E-1,-3.234495E-1,-1.2361157E0,-6.517209E-1,6.085615E-1,5.4437006E-1,1.0874038E0,-6.0065996E-2,8.178684E-1,-6.1180916E-2,-6.392041E-2,-8.709548E-1,4.2293864E-1,1.4414768E-1,9.379874E-1,-3.8728592E-1,1.1175953E0,1.1712654E0,8.377493E-1,-7.0876575E-1,1.1546843E0,-5.614346E-2,-2.6616075E-3,6.686419E-2,-1.3644668E-2,-1.0928991E-2,5.4758616E-2,5.132634E-3,6.989169E-2,-3.381134E-2,8.187442E-2,-7.958349E-2,5.6604918E-2,4.4039052E-2,6.001466E-2,4.6598013E-2,-3.8510013E-2,2.3815459E-2,-5.2584287E-2,5.919202E-2,1.4407732E-2],"categories":[],"categories_nodes":[],"categories_segments":[],"categories_sizes":[],"default_left":[0,0,0,0,0,0,0,0,0,0,0,0,0,0,0,0,0,0,0,0,0,0,0,0,0,0,0,0,0,0,0,0,0,0,0,0,0,0,0,0,0,0,0,0,0],"id":21,"left_children":[1,3,5,7,9,11,13,15,17,19,21,-1,23,-1,-1,25,27,29,31,33,35,37,39,41,43,-1,-1,-1,-1,-1,-1,-1,-1,-1,-1,-1,-1,-1,-1,-1,-1,-1,-1,-1,-1],"loss_changes":[1.3705845E4,2.0906304E3,5.341992E1,1.5471172E3,3.2796436E2,6.7794876E1,1.5527344E0,3.9791162E2,3.5239386E2,7.4138544E2,1.18145996E2,0E0,1.603168E1,0E0,0E0,2.8870093E2,1.826919E2,3.3050668E2,5.1760547E2,3.1072665E2,3.556189E1,3.483545E1,2.1798389E2,2.9259887E0,2.8087234E-1,0E0,0E0,0E0,0E0,0E0,0E0,0E0,0E0,0E0,0E0,0E0,0E0,0E0,0E0,0E0,0E0,0E0,0E0,0E0,0E0],"parents":[2147483647,0,0,1,1,2,2,3,3,4,4,5,5,6,6,7,7,8,8,9,9,10,10,12,12,15,15,16,16,17,17,18,18,19,19,20,20,21,21,22,22,23,23,24,24],"right_children":[2,4,6,8,10,12,14,16,18,20,22,-1,24,-1,-1,26,28,30,32,34,36,38,40,42,44,-1,-1,-1,-1,-1,-1,-1,-1,-1,-1,-1,-1,-1,-1,-1,-1,-1,-1,-1,-1],"split_conditions":[1.16E2,1E0,1.45E2,4.1173572E5,3.479425E-3,1.823811E6,5.665966E5,1.9735454E-4,1E0,1.9735454E-4,2E0,-6.0065996E-2,6.5424736E-3,-6.1180916E-2,-6.392041E-2,1E0,1E0,1E0,1E0,1E0,1.1410407E4,8.1880044E5,1E0,9.2599056E5,1E0,-5.614346E-2,-2.6616075E-3,6.686419E-2,-1.3644668E-2,-1.0928991E-2,5.4758616E-2,5.132634E-3,6.989169E-2,-3.381134E-2,8.187442E-2,-7.958349E-2,5.6604918E-2,4.4039052E-2,6.001466E-2,4.6598013E-2,-3.8510013E-2,2.3815459E-2,-5.2584287E-2,5.919202E-2,1.4407732E-2],"split_indices":[33,60,33,2,0,9,2,20,62,20,0,0,15,0,0,59,20,66,61,61,18,27,12,2,55,0,0,0,0,0,0,0,0,0,0,0,0,0,0,0,0,0,0,0,0],"split_type":[0,0,0,0,0,0,0,0,0,0,0,0,0,0,0,0,0,0,0,0,0,0,0,0,0,0,0,0,0,0,0,0,0,0,0,0,0,0,0,0,0,0,0,0,0],"sum_hessian":[1.7025664E4,1.1064972E4,5.9606914E3,3.9896152E3,7.0753564E3,6.56837E1,5.895008E3,1.6863523E3,2.3032632E3,1.3864252E3,5.688931E3,3.7097076E1,2.8586626E1,4.573479E3,1.3215288E3,1.4007786E3,2.8557367E2,9.563997E2,1.3468634E3,5.2822766E2,8.581976E2,4.255703E3,1.433228E3,4.967387E0,2.361924E1,1.0705906E3,3.3018802E2,1.23011215E2,1.6256245E2,6.928949E2,2.6350482E2,4.786302E2,8.682332E2,4.6284448E2,6.5383156E1,3.9905236E0,8.5420703E2,3.894803E2,3.866223E3,1.3542991E3,7.8928925E1,1.0275078E0,3.9398794E0,2.2496124E1,1.123114E0],"tree_param":{"num_deleted":"0","num_feature":"78","num_nodes":"45","size_leaf_vector":"1"}},{"base_weights":[-7.047243E-4,6.4356977E-1,-1.2127069E0,7.7780925E-2,9.6809673E-1,-3.404098E-1,-1.2220497E0,-6.3214433E-1,5.849953E-1,7.059152E-1,1.1453272E0,-5.947529E-2,7.372077E-1,-6.0512938E-2,-6.3085094E-2,-8.5551786E-1,4.2105642E-1,1.7546992E-1,9.8850685E-1,3.972111E-2,1.0220598E0,1.250121E0,8.6371845E-1,-6.6935617E-1,1.1069487E0,-5.519786E-2,-2.5179067E-3,6.294128E-2,-3.7018575E-2,-4.409713E-2,2.1756556E-2,6.585737E-2,1.8258726E-2,-2.015821E-2,4.9855635E-2,5.609555E-2,2.335399E-2,8.238334E-2,6.172896E-2,1.2349303E-2,5.486652E-2,-5.283429E-2,2.6968656E-2,5.773245E-2,7.598805E-3],"categories":[],"categories_nodes":[],"categories_segments":[],"categories_sizes":[],"default_left":[0,0,0,0,0,0,0,0,0,0,0,0,0,0,0,0,0,0,0,0,0,0,0,0,0,0,0,0,0,0,0,0,0,0,0,0,0,0,0,0,0,0,0,0,0],"id":22,"left_children":[1,3,5,7,9,11,13,15,17,19,21,-1,23,-1,-1,25,27,29,31,33,35,37,39,41,43,-1,-1,-1,-1,-1,-1,-1,-1,-1,-1,-1,-1,-1,-1,-1,-1,-1,-1,-1,-1],"loss_changes":[1.2880549E4,1.9774673E3,4.6242188E1,1.4143778E3,3.172202E2,5.7658226E1,1.1220703E0,3.8545648E2,3.7840436E2,5.819131E2,1.1938623E2,0E0,1.5284677E1,0E0,0E0,2.7015344E2,2.802787E2,3.1290503E2,2.3586536E2,3.7790042E2,1.0331531E2,1.6333496E1,1.5969928E2,3.5869677E0,8.5041046E-1,0E0,0E0,0E0,0E0,0E0,0E0,0E0,0E0,0E0,0E0,0E0,0E0,0E0,0E0,0E0,0E0,0E0,0E0,0E0,0E0],"parents":[2147483647,0,0,1,1,2,2,3,3,4,4,5,5,6,6,7,7,8,8,9,9,10,10,12,12,15,15,16,16,17,17,18,18,19,19,20,20,21,21,22,22,23,23,24,24],"right_children":[2,4,6,8,10,12,14,16,18,20,22,-1,24,-1,-1,26,28,30,32,34,36,38,40,42,44,-1,-1,-1,-1,-1,-1,-1,-1,-1,-1,-1,-1,-1,-1,-1,-1,-1,-1,-1,-1],"split_conditions":[1.16E2,1E0,1.45E2,3.8862812E5,1E0,1.6605859E6,5.665966E5,1.9735454E-4,1E0,3.2932895E6,-1.74E2,-5.947529E-2,6.5424736E-3,-6.0512938E-2,-6.3085094E-2,1E0,1E0,1.0041618E0,-1.74E2,1.9735454E-4,5E0,-3.115208E-1,8.1335644E5,1E0,9.6484006E5,-5.519786E-2,-2.5179067E-3,6.294128E-2,-3.7018575E-2,-4.409713E-2,2.1756556E-2,6.585737E-2,1.8258726E-2,-2.015821E-2,4.9855635E-2,5.609555E-2,2.335399E-2,8.238334E-2,6.172896E-2,1.2349303E-2,5.486652E-2,-5.283429E-2,2.6968656E-2,5.773245E-2,7.598805E-3],"split_indices":[33,60,33,2,30,3,2,20,30,27,33,0,15,0,0,59,21,29,33,20,26,19,3,66,4,0,0,0,0,0,0,0,0,0,0,0,0,0,0,0,0,0,0,0,0],"split_type":[0,0,0,0,0,0,0,0,0,0,0,0,0,0,0,0,0,0,0,0,0,0,0,0,0,0,0,0,0,0,0,0,0,0,0,0,0,0,0,0,0,0,0,0,0],"sum_hessian":[1.6493291E4,1.0769124E4,5.7241675E3,3.9258801E3,6.843244E3,6.1056026E1,5.6631113E3,1.6359158E3,2.2899644E3,2.762134E3,4.0811099E3,3.4090775E1,2.6965252E1,4.3893975E3,1.273714E3,1.34982E3,2.8609586E2,1.137225E3,1.1527393E3,8.8929565E2,1.8728384E3,2.9717917E3,1.1093181E3,5.4441924E0,2.152106E1,1.0312479E3,3.1857202E2,1.6615785E2,1.19937996E2,2.237315E2,9.1349347E2,7.5406116E2,3.986781E2,6.084214E2,2.8087427E2,1.5863948E3,2.8644363E2,1.07858154E2,2.8639336E3,3.0532397E2,8.039941E2,4.2182646E0,1.225928E0,2.0298094E1,1.2229662E0],"tree_param":{"num_deleted":"0","num_feature":"78","num_nodes":"45","size_leaf_vector":"1"}},{"base_weights":[3.2360684E-3,6.3468486E-1,-1.1992007E0,8.3558835E-2,9.520406E-1,-3.3123398E-1,-1.2088664E0,-6.034482E-1,5.76305E-1,6.936885E-1,1.1285896E0,-5.8692724E-2,7.0908755E-1,-5.98976E-2,-6.2260944E-2,-7.858891E-1,6.283929E-1,9.2063445E-1,1.15294896E-1,4.0200327E-2,1.0078785E0,1.2343744E0,8.394363E-1,-6.629389E-1,1.0640885E0,-4.722176E-2,1.6785156E-2,-3.1517844E-3,8.21946E-2,2.5724167E-2,5.728916E-2,-6.3146554E-2,2.6435202E-2,-1.9374719E-2,4.9855106E-2,5.471283E-2,1.8245649E-2,8.003114E-2,6.0967304E-2,1.1265495E-2,5.3782005E-2,-5.1927533E-2,2.5810063E-2,-3.5918336E-3,5.727191E-2],"categories":[],"categories_nodes":[],"categories_segments":[],"categories_sizes":[],"default_left":[0,0,0,0,0,0,0,0,0,0,0,0,0,0,0,0,0,0,0,0,0,0,0,0,0,0,0,0,0,0,0,0,0,0,0,0,0,0,0,0,0,0,0,0,0],"id":23,"left_children":[1,3,5,7,9,11,13,15,17,19,21,-1,23,-1,-1,25,27,29,31,33,35,37,39,41,43,-1,-1,-1,-1,-1,-1,-1,-1,-1,-1,-1,-1,-1,-1,-1,-1,-1,-1,-1,-1],"loss_changes":[1.2134181E4,1.832645E3,4.576416E1,1.296913E3,3.0250977E2,5.516421E1,6.6796875E-1,3.6012E2,3.540251E2,5.547208E2,1.19739746E2,0E0,1.4518655E1,0E0,0E0,2.4824316E2,1.4543352E2,1.16177246E2,5.447886E2,3.5984918E2,1.00936646E2,1.3949219E1,1.536264E2,3.390881E0,2.1997128E0,0E0,0E0,0E0,0E0,0E0,0E0,0E0,0E0,0E0,0E0,0E0,0E0,0E0,0E0,0E0,0E0,0E0,0E0,0E0,0E0],"parents":[2147483647,0,0,1,1,2,2,3,3,4,4,5,5,6,6,7,7,8,8,9,9,10,10,12,12,15,15,16,16,17,17,18,18,19,19,20,20,21,21,22,22,23,23,24,24],"right_children":[2,4,6,8,10,12,14,16,18,20,22,-1,24,-1,-1,26,28,30,32,34,36,38,40,42,44,-1,-1,-1,-1,-1,-1,-1,-1,-1,-1,-1,-1,-1,-1,-1,-1,-1,-1,-1,-1],"split_conditions":[1.16E2,1E0,1.45E2,4.1173572E5,1E0,1.7796544E6,5.665966E5,1E0,2E0,3.2932895E6,-1.66E2,-5.8692724E-2,6.5424736E-3,-5.98976E-2,-6.2260944E-2,1E0,1E0,1E0,2.0033166E0,1.9735454E-4,6E0,-3.115208E-1,8.008083E5,1E0,-3.745847E-2,-4.722176E-2,1.6785156E-2,-3.1517844E-3,8.21946E-2,2.5724167E-2,5.728916E-2,-6.3146554E-2,2.6435202E-2,-1.9374719E-2,4.9855106E-2,5.471283E-2,1.8245649E-2,8.003114E-2,6.0967304E-2,1.1265495E-2,5.3782005E-2,-5.1927533E-2,2.5810063E-2,-3.5918336E-3,5.727191E-2],"split_indices":[33,60,33,2,30,9,2,36,0,27,33,0,15,0,0,74,75,30,11,20,26,19,9,53,19,0,0,0,0,0,0,0,0,0,0,0,0,0,0,0,0,0,0,0,0],"split_type":[0,0,0,0,0,0,0,0,0,0,0,0,0,0,0,0,0,0,0,0,0,0,0,0,0,0,0,0,0,0,0,0,0,0,0,0,0,0,0,0,0,0,0,0,0],"sum_hessian":[1.5979223E4,1.047752E4,5.5017026E3,3.8290981E3,6.648422E3,6.0980473E1,5.440722E3,1.599201E3,2.229897E3,2.7009417E3,3.9474802E3,3.3620667E1,2.7359804E1,4.2105312E3,1.2301907E3,1.3932212E3,2.0597989E2,1.2759156E3,9.539813E2,8.7731995E2,1.8236217E3,2.887748E3,1.0597322E3,5.445668E0,2.1914137E1,1.2208081E3,1.724131E2,1.231012E2,8.2878685E1,4.5621805E2,8.1969763E2,2.1965138E2,7.3432996E2,6.0673157E2,2.7058838E2,1.6070269E3,2.1659479E2,1.0966432E2,2.7780835E3,2.9491397E2,7.648182E2,4.2204776E0,1.2251908E0,1.4723226E0,2.0441814E1],"tree_param":{"num_deleted":"0","num_feature":"78","num_nodes":"45","size_leaf_vector":"1"}},{"base_weights":[-1.1485043E-3,6.1439276E-1,-1.1875246E0,7.5239785E-2,9.3016464E-1,-3.227159E-1,-1.196692E0,-5.299369E-1,5.8909714E-1,4.9376684E-1,1.0398765E0,-5.8053553E-2,7.130018E-1,-5.93248E-2,-6.152756E-2,-9.1141284E-1,1.8654709E-1,1.3754584E-1,9.0200293E-1,-4.0922585E-1,1.0764579E0,8.2768697E-1,1.1452664E0,-6.292801E-1,1.073293E0,-6.1384857E-2,-2.662958E-2,7.761072E-2,-2.849611E-2,-1.19941775E-2,5.0341737E-2,6.266476E-3,6.749932E-2,-3.343604E-2,7.660391E-2,-8.09245E-2,5.4699745E-2,2.7907649E-2,5.7468593E-2,4.724477E-2,5.8368035E-2,-5.13958E-2,3.5337746E-2,4.0291753E-3,5.6392338E-2],"categories":[],"categories_nodes":[],"categories_segments":[],"categories_sizes":[],"default_left":[0,0,0,0,0,0,0,0,0,0,0,0,0,0,0,0,0,0,0,0,0,0,0,0,0,0,0,0,0,0,0,0,0,0,0,0,0,0,0,0,0,0,0,0,0],"id":24,"left_children":[1,3,5,7,9,11,13,15,17,19,21,-1,23,-1,-1,25,27,29,31,33,35,37,39,41,43,-1,-1,-1,-1,-1,-1,-1,-1,-1,-1,-1,-1,-1,-1,-1,-1,-1,-1,-1,-1],"loss_changes":[1.1323953E4,1.7380964E3,4.1608887E1,1.1733221E3,3.077495E2,5.026259E1,3.4960938E-1,4.737374E2,2.8817114E2,6.820242E2,1.140874E2,0E0,1.329193E1,0E0,0E0,1.3483563E2,6.236487E2,2.7464526E2,4.191128E2,2.5732535E2,3.899359E1,1.4768481E2,1.4102051E1,4.0024805E0,1.042984E0,0E0,0E0,0E0,0E0,0E0,0E0,0E0,0E0,0E0,0E0,0E0,0E0,0E0,0E0,0E0,0E0,0E0,0E0,0E0,0E0],"parents":[2147483647,0,0,1,1,2,2,3,3,4,4,5,5,6,6,7,7,8,8,9,9,10,10,12,12,15,15,16,16,17,17,18,18,19,19,20,20,21,21,22,22,23,23,24,24],"right_children":[2,4,6,8,10,12,14,16,18,20,22,-1,24,-1,-1,26,28,30,32,34,36,38,40,42,44,-1,-1,-1,-1,-1,-1,-1,-1,-1,-1,-1,-1,-1,-1,-1,-1,-1,-1,-1,-1],"split_conditions":[1.16E2,1E0,1.45E2,5.665966E5,1.3414636E2,1.5895018E6,5.665966E5,1E0,1E0,1.9735454E-4,3.226E1,-5.8053553E-2,6.5424736E-3,-5.93248E-2,-6.152756E-2,8.057594E5,-1.74E2,1.0838959E-3,1E0,1E0,1.156464E4,1E0,-1.2580332E-1,1E0,-2.4947278E-2,-6.1384857E-2,-2.662958E-2,7.761072E-2,-2.849611E-2,-1.19941775E-2,5.0341737E-2,6.266476E-3,6.749932E-2,-3.343604E-2,7.660391E-2,-8.09245E-2,5.4699745E-2,2.7907649E-2,5.7468593E-2,4.724477E-2,5.8368035E-2,-5.13958E-2,3.5337746E-2,4.0291753E-3,5.6392338E-2],"split_indices":[33,60,33,2,3,3,2,30,62,20,17,0,15,0,0,27,33,19,61,61,17,56,19,53,19,0,0,0,0,0,0,0,0,0,0,0,0,0,0,0,0,0,0,0,0],"split_type":[0,0,0,0,0,0,0,0,0,0,0,0,0,0,0,0,0,0,0,0,0,0,0,0,0,0,0,0,0,0,0,0,0,0,0,0,0,0,0,0,0,0,0,0,0],"sum_hessian":[1.550467E4,1.0208538E4,5.296132E3,3.7710454E3,6.4374927E3,5.5932835E1,5.240199E3,1.7316394E3,2.039406E3,1.2943782E3,5.1431143E3,3.084473E1,2.5088104E1,4.0551243E3,1.1850748E3,1.12982E3,6.018195E2,8.353541E2,1.2040519E3,5.0777698E2,7.866012E2,1.7097008E3,3.4334136E3,5.151047E0,1.9937057E1,6.145123E2,5.1530756E2,2.1415315E2,3.8766635E2,5.829653E2,2.5238885E2,4.4091418E2,7.631377E2,4.4848352E2,5.929347E1,4.49538E0,7.8210583E2,9.3174426E2,7.7795654E2,3.4533798E2,3.0880754E3,4.144935E0,1.006112E0,1.1675946E0,1.8769463E1],"tree_param":{"num_deleted":"0","num_feature":"78","num_nodes":"45","size_leaf_vector":"1"}},{"base_weights":[-2.2801805E-4,-4.9220672E-1,6.152925E-1,-7.681516E-1,6.2489337E-1,1.8882278E-1,1.1223261E0,-9.7598755E-1,6.1362576E-1,1.167289E0,-4.1718894E-1,-1.9498551E-1,5.9019345E-1,1.1428591E0,-1.3755867E0,-1.0115633E0,7.048443E-1,1.024354E0,1.1459325E-1,1.1910745E0,1.975347E-1,-7.420914E-1,7.955255E-1,-3.795344E-1,9.063468E-1,3.8157544E-1,6.1779846E-2,1.152578E0,-3.6702936E-3,-8.346634E-2,5.7432085E-1,-5.2108478E-2,1.7468939E-3,6.261929E-2,-5.8619946E-2,5.882613E-2,-1.174452E-3,3.157814E-2,-5.1269293E-2,5.9897024E-2,4.374633E-2,5.6073096E-2,-7.7333495E-2,-4.644237E-2,2.7777791E-2,-6.3483424E-2,5.9943523E-2,-3.0011693E-2,3.4946065E-2,-1.3641377E-2,6.06556E-2,-1.0226073E-3,6.0680967E-2,-5.8182653E-2,5.769987E-2,-1.0195698E-1,5.6070145E-2,3.8563594E-2,3.8148325E-3],"categories":[],"categories_nodes":[],"categories_segments":[],"categories_sizes":[],"default_left":[0,0,0,0,0,0,0,0,0,0,0,0,0,0,0,0,0,0,0,0,0,0,0,0,0,0,0,0,0,0,0,0,0,0,0,0,0,0,0,0,0,0,0,0,0,0,0,0,0,0,0,0,0,0,0,0,0,0,0],"id":25,"left_children":[1,3,5,7,9,11,13,15,17,19,21,23,25,27,29,31,33,35,37,39,41,43,45,47,49,51,-1,53,55,-1,57,-1,-1,-1,-1,-1,-1,-1,-1,-1,-1,-1,-1,-1,-1,-1,-1,-1,-1,-1,-1,-1,-1,-1,-1,-1,-1,-1,-1],"loss_changes":[4.5523613E3,2.5759788E3,1.4438169E3,1.9248503E3,9.3625275E2,5.590686E2,1.5803906E2,3.4901562E2,1.7957095E2,2.4885986E1,2.2418152E2,3.774804E2,2.383675E2,3.372632E1,1.5464565E1,1.8274756E2,1.26167786E2,7.668353E1,2.3456335E2,1.2589111E0,4.568406E1,1.0910515E2,1.0180576E2,3.7884677E2,9.676811E1,4.4893073E2,0E0,1.1209717E1,6.282321E1,0E0,3.3935726E-1,0E0,0E0,0E0,0E0,0E0,0E0,0E0,0E0,0E0,0E0,0E0,0E0,0E0,0E0,0E0,0E0,0E0,0E0,0E0,0E0,0E0,0E0,0E0,0E0,0E0,0E0,0E0,0E0],"parents":[2147483647,0,0,1,1,2,2,3,3,4,4,5,5,6,6,7,7,8,8,9,9,10,10,11,11,12,12,13,13,14,14,15,15,16,16,17,17,18,18,19,19,20,20,21,21,22,22,23,23,24,24,25,25,27,27,28,28,30,30],"right_children":[2,4,6,8,10,12,14,16,18,20,22,24,26,28,30,32,34,36,38,40,42,44,46,48,50,52,-1,54,56,-1,58,-1,-1,-1,-1,-1,-1,-1,-1,-1,-1,-1,-1,-1,-1,-1,-1,-1,-1,-1,-1,-1,-1,-1,-1,-1,-1,-1,-1],"split_conditions":[7.688349E5,1.9735454E-4,1.0838959E-3,2.6125295E-4,1E0,1E0,1.9148792E6,1.0016263E0,2E0,5.2249846E0,1E0,1E0,1E0,2E0,5.0443254E0,1.14010505E-1,1.3467711E5,1E0,3.3333334E-1,4E0,2.343223E-2,1E0,1E0,5.0443254E0,1E0,1E0,6.1779846E-2,6.331387E-3,9.894906E6,-8.346634E-2,2.3922978E6,-5.2108478E-2,1.7468939E-3,6.261929E-2,-5.8619946E-2,5.882613E-2,-1.174452E-3,3.157814E-2,-5.1269293E-2,5.9897024E-2,4.374633E-2,5.6073096E-2,-7.7333495E-2,-4.644237E-2,2.7777791E-2,-6.3483424E-2,5.9943523E-2,-3.0011693E-2,3.4946065E-2,-1.3641377E-2,6.06556E-2,-1.0226073E-3,6.0680967E-2,-5.8182653E-2,5.769987E-2,-1.0195698E-1,5.6070145E-2,3.8563594E-2,3.8148325E-3],"split_indices":[2,20,19,7,21,60,28,23,11,15,72,51,61,13,11,21,9,12,7,15,21,36,58,11,62,62,0,13,2,0,3,0,0,0,0,0,0,0,0,0,0,0,0,0,0,0,0,0,0,0,0,0,0,0,0,0,0,0,0],"split_type":[0,0,0,0,0,0,0,0,0,0,0,0,0,0,0,0,0,0,0,0,0,0,0,0,0,0,0,0,0,0,0,0,0,0,0,0,0,0,0,0,0,0,0,0,0,0,0,0,0,0,0,0,0,0,0,0,0,0,0],"sum_hessian":[1.5031079E4,8.354011E3,6.677068E3,6.699436E3,1.654575E3,3.6274043E3,3.0496636E3,5.823765E3,8.756708E2,1.0881047E3,5.6647015E2,1.8545328E3,1.7728716E3,3.0253376E3,2.4325953E1,5.703447E3,1.2031854E2,4.7975565E2,3.9591516E2,1.0618326E3,2.627213E1,4.470796E2,1.19390564E2,1.5889327E3,2.6560007E2,1.3410018E3,4.318697E2,2.999903E3,2.5434563E1,2.1266237E1,3.059716E0,5.5413853E3,1.620611E2,9.340707E1,2.691147E1,4.1881256E2,6.0943096E1,2.726961E2,1.23219055E2,1.0365326E3,2.5300035E1,1.7407953E1,8.864177E0,3.9108002E2,5.5999596E1,1.9156778E1,1.0023378E2,1.3193741E3,2.6955856E2,5.485472E1,2.1074536E2,9.047969E2,4.36205E2,1.3358774E0,2.9985671E3,8.76485E0,1.6669714E1,1.799438E0,1.2602779E0],"tree_param":{"num_deleted":"0","num_feature":"78","num_nodes":"59","size_leaf_vector":"1"}},{"base_weights":[2.3318923E-3,5.951622E-1,-1.168509E0,7.51738E-2,9.0651673E-1,-2.900289E-1,-1.1781374E0,-5.087612E-1,5.639348E-1,6.34611E-1,1.0969495E0,-5.6862354E-2,6.8084604E-1,-5.8327504E-2,-6.0519166E-2,-8.8323087E-1,1.8559007E-1,8.911655E-1,1.2972318E-1,-5.194114E-3,9.573058E-1,1.2087146E0,8.048084E-1,-6.31602E-1,1.0226251E0,-5.0059985E-2,4.8626464E-2,7.559513E-2,-2.6423046E-2,2.5336033E-2,5.537762E-2,2.5812566E-2,-5.268083E-2,-1.7014457E-2,6.1854888E-2,5.225422E-2,1.7574307E-2,6.7638256E-2,5.9214175E-2,1.041262E-2,5.208789E-2,-5.013123E-2,2.4531003E-2,5.5115055E-2,1.1216954E-2],"categories":[],"categories_nodes":[],"categories_segments":[],"categories_sizes":[],"default_left":[0,0,0,0,0,0,0,0,0,0,0,0,0,0,0,0,0,0,0,0,0,0,0,0,0,0,0,0,0,0,0,0,0,0,0,0,0,0,0,0,0,0,0,0,0],"id":26,"left_children":[1,3,5,7,9,11,13,15,17,19,21,-1,23,-1,-1,25,27,29,31,33,35,37,39,41,43,-1,-1,-1,-1,-1,-1,-1,-1,-1,-1,-1,-1,-1,-1,-1,-1,-1,-1,-1,-1],"loss_changes":[1.0132576E4,1.5689229E3,4.1163086E1,1.0364742E3,3.1316602E2,4.562265E1,4.013672E-1,4.3042386E2,2.807669E2,5.159608E2,1.1537793E2,0E0,1.2323588E1,0E0,0E0,2.3635327E2,5.5064417E2,9.320215E1,3.8965607E2,3.496183E2,8.7971924E1,7.461426E0,1.3958667E2,2.9888446E0,1.0907135E0,0E0,0E0,0E0,0E0,0E0,0E0,0E0,0E0,0E0,0E0,0E0,0E0,0E0,0E0,0E0,0E0,0E0,0E0,0E0,0E0],"parents":[2147483647,0,0,1,1,2,2,3,3,4,4,5,5,6,6,7,7,8,8,9,9,10,10,12,12,15,15,16,16,17,17,18,18,19,19,20,20,21,21,22,22,23,23,24,24],"right_children":[2,4,6,8,10,12,14,16,18,20,22,-1,24,-1,-1,26,28,30,32,34,36,38,40,42,44,-1,-1,-1,-1,-1,-1,-1,-1,-1,-1,-1,-1,-1,-1,-1,-1,-1,-1,-1,-1],"split_conditions":[1.16E2,1E0,1.45E2,5.665966E5,1E0,1.6605859E6,6.203724E5,1E0,2E0,3.2932895E6,-1.74E2,-5.6862354E-2,6.5424736E-3,-5.8327504E-2,-6.0519166E-2,1.0016263E0,-1.74E2,1E0,6.666667E-1,1E0,4E0,3.479425E-3,7.708661E5,1E0,8.477101E5,-5.0059985E-2,4.8626464E-2,7.559513E-2,-2.6423046E-2,2.5336033E-2,5.537762E-2,2.5812566E-2,-5.268083E-2,-1.7014457E-2,6.1854888E-2,5.225422E-2,1.7574307E-2,6.7638256E-2,5.9214175E-2,1.041262E-2,5.208789E-2,-5.013123E-2,2.4531003E-2,5.5115055E-2,1.1216954E-2],"split_indices":[33,60,33,2,30,3,9,30,0,27,33,0,15,0,0,23,33,30,12,61,0,0,9,66,4,0,0,0,0,0,0,0,0,0,0,0,0,0,0,0,0,0,0,0,0],"split_type":[0,0,0,0,0,0,0,0,0,0,0,0,0,0,0,0,0,0,0,0,0,0,0,0,0,0,0,0,0,0,0,0,0,0,0,0,0,0,0,0,0,0,0,0,0],"sum_hessian":[1.4595938E4,9.69007E3,4.9058687E3,3.6295898E3,6.0604805E3,5.3524033E1,4.852344E3,1.6537603E3,1.9758297E3,2.498038E3,3.5624424E3,2.8490713E1,2.5033321E1,3.5969753E3,1.255369E3,1.0741759E3,5.7958435E2,1.1261146E3,8.4971515E2,8.378404E2,1.6601976E3,2.5744077E3,9.880346E2,4.9969215E0,2.00364E1,1.0104059E3,6.377E1,2.0244183E2,3.7714252E2,4.0676874E2,7.193458E2,6.409258E2,2.0878935E2,6.6042413E2,1.7741629E2,1.4494574E3,2.1074019E2,3.6542337E2,2.2089844E3,2.8141324E2,7.066214E2,3.8354418E0,1.1614797E0,1.7871801E1,2.1645975E0],"tree_param":{"num_deleted":"0","num_feature":"78","num_nodes":"45","size_leaf_vector":"1"}},{"base_weights":[-9.180899E-4,-4.7052947E-1,5.851085E-1,-7.431262E-1,6.292737E-1,1.1237331E-1,1.0507076E0,-9.3388695E-1,7.1598506E-1,1.1509783E0,-3.6701635E-1,6.027746E-1,-2.4804135E-1,1.0735643E0,-1.211275E0,-1.0420872E0,-4.1707236E-1,1.060825E0,2.151758E-1,1.1753348E0,1.8276912E-1,-7.625493E-1,9.331649E-1,2.6447767E-1,1.0586119E0,-1.4340849E0,5.0895363E-2,-1.9270179E0,1.0879674E0,-1.6638706E0,3.786498E-1,-5.3782113E-2,-2.686514E-2,6.933531E-2,-3.4193397E-2,6.6118546E-2,3.1250633E-2,3.5611305E-2,-5.1592242E-2,5.908223E-2,4.355421E-2,5.4179844E-2,-7.737174E-2,-5.9921604E-2,-1.0966608E-2,-8.003432E-2,5.4815467E-2,-7.950976E-3,3.7440117E-2,5.402434E-2,-6.1731745E-2,-9.203903E-2,-6.342541E-2,6.493732E-2,-8.972367E-3,-1.2538713E-1,-7.150602E-2,5.6321528E-2,2.6025308E-2,-1.0407919E-1,-6.41411E-2,-5.5301726E-2,5.056677E-2],"categories":[],"categories_nodes":[],"categories_segments":[],"categories_sizes":[],"default_left":[0,0,0,0,0,0,0,0,0,0,0,0,0,0,0,0,0,0,0,0,0,0,0,0,0,0,0,0,0,0,0,0,0,0,0,0,0,0,0,0,0,0,0,0,0,0,0,0,0,0,0,0,0,0,0,0,0,0,0,0,0,0,0],"id":27,"left_children":[1,3,5,7,9,11,13,15,17,19,21,23,25,27,29,31,33,35,37,39,41,43,45,47,49,51,53,55,57,59,61,-1,-1,-1,-1,-1,-1,-1,-1,-1,-1,-1,-1,-1,-1,-1,-1,-1,-1,-1,-1,-1,-1,-1,-1,-1,-1,-1,-1,-1,-1,-1,-1],"loss_changes":[3.9068713E3,2.3631812E3,1.3899204E3,1.7586677E3,8.143318E2,5.5421436E2,1.6579248E2,3.1193994E2,1.2598538E2,2.4027222E1,2.7786356E2,2.0454196E2,6.4094696E2,1.3824365E2,2.387088E1,7.76499E1,4.6713608E2,4.8478516E1,1.862341E2,8.9538574E-1,4.283921E1,9.770958E1,5.3906204E1,1.5676906E2,2.970105E1,2.2170288E1,4.1547415E2,8.6039734E-1,6.7857666E1,1.3608093E0,8.6062765E0,0E0,0E0,0E0,0E0,0E0,0E0,0E0,0E0,0E0,0E0,0E0,0E0,0E0,0E0,0E0,0E0,0E0,0E0,0E0,0E0,0E0,0E0,0E0,0E0,0E0,0E0,0E0,0E0,0E0,0E0,0E0,0E0],"parents":[2147483647,0,0,1,1,2,2,3,3,4,4,5,5,6,6,7,7,8,8,9,9,10,10,11,11,12,12,13,13,14,14,15,15,16,16,17,17,18,18,19,19,20,20,21,21,22,22,23,23,24,24,25,25,26,26,27,27,28,28,29,29,30,30],"right_children":[2,4,6,8,10,12,14,16,18,20,22,24,26,28,30,32,34,36,38,40,42,44,46,48,50,52,54,56,58,60,62,-1,-1,-1,-1,-1,-1,-1,-1,-1,-1,-1,-1,-1,-1,-1,-1,-1,-1,-1,-1,-1,-1,-1,-1,-1,-1,-1,-1,-1,-1,-1,-1],"split_conditions":[7.688349E5,1.9735454E-4,4.358291E-3,1.8030276E-4,1E0,2E0,2.0892478E6,2.0041692E0,2E0,5.2249846E0,1E0,1E0,1.005103E0,3.476046E6,1E0,1E0,3E0,1E0,3.3333334E-1,4E0,2.343223E-2,1E0,1E0,1E0,1E0,1E0,6.5091082E4,1E0,2E0,1E0,1.8030276E-4,-5.3782113E-2,-2.686514E-2,6.933531E-2,-3.4193397E-2,6.6118546E-2,3.1250633E-2,3.5611305E-2,-5.1592242E-2,5.908223E-2,4.355421E-2,5.4179844E-2,-7.737174E-2,-5.9921604E-2,-1.0966608E-2,-8.003432E-2,5.4815467E-2,-7.950976E-3,3.7440117E-2,5.402434E-2,-6.1731745E-2,-9.203903E-2,-6.342541E-2,6.493732E-2,-8.972367E-3,-1.2538713E-1,-7.150602E-2,5.6321528E-2,2.6025308E-2,-1.0407919E-1,-6.41411E-2,-5.5301726E-2,5.056677E-2],"split_indices":[2,20,24,6,21,26,28,26,11,15,52,59,11,27,73,36,26,6,6,15,21,60,30,62,70,30,4,30,13,30,6,0,0,0,0,0,0,0,0,0,0,0,0,0,0,0,0,0,0,0,0,0,0,0,0,0,0,0,0,0,0,0,0],"split_type":[0,0,0,0,0,0,0,0,0,0,0,0,0,0,0,0,0,0,0,0,0,0,0,0,0,0,0,0,0,0,0,0,0,0,0,0,0,0,0,0,0,0,0,0,0,0,0,0,0,0,0,0,0,0,0,0,0,0,0,0,0,0,0],"sum_hessian":[1.4194234E4,7.879893E3,6.3143413E3,6.3149873E3,1.5649059E3,3.133776E3,3.1805654E3,5.585157E3,7.298301E2,1.0269769E3,5.379289E2,1.3272157E3,1.8065602E3,3.1492683E3,3.1297222E1,4.6174355E3,9.6772174E2,4.3155676E2,2.9827335E2,1.0015673E3,2.5409601E1,4.1277164E2,1.25157265E2,7.6273584E2,5.6447986E2,3.629085E2,1.4436516E3,1.44102E1,3.134858E3,2.4325968E1,6.971255E0,4.3285664E3,2.888689E2,1.24151054E2,8.4357074E2,2.6842908E2,1.6312767E2,2.1357378E2,8.469956E1,9.7839294E2,2.3174402E1,1.6955479E1,8.4541235E0,2.2834175E2,1.8442989E2,7.0378923E0,1.1811937E2,4.0727936E2,3.5545648E2,5.596701E2,4.8097787E0,1.0207379E2,2.6083475E2,2.2423732E2,1.2194143E3,4.7786202E0,9.63158E0,2.9349402E3,1.9991794E2,9.475719E0,1.4850247E1,1.8595065E0,5.111748E0],"tree_param":{"num_deleted":"0","num_feature":"78","num_nodes":"63","size_leaf_vector":"1"}},{"base_weights":[7.422321E-4,5.731115E-1,-1.153489E0,7.178732E-2,8.778041E-1,-3.8523418E-1,-1.1620041E0,-4.9611807E-1,5.4195845E-1,6.027556E-1,1.073818E0,-5.622233E-2,6.096705E-1,-5.7516396E-2,-5.9824534E-2,-8.7274164E-1,1.912781E-1,8.5927975E-1,1.397303E-1,-1.178044E-3,9.2725265E-1,1.1895535E0,7.634887E-1,9.2993873E-1,-5.1412243E-2,-4.907769E-2,4.3941665E-2,7.489688E-2,-2.5017766E-2,2.34509E-2,5.426311E-2,-5.5925447E-2,2.5209783E-2,-1.5660075E-2,6.0676407E-2,5.1678862E-2,1.9178195E-2,7.924124E-2,5.8604278E-2,7.6361904E-3,5.144852E-2,5.2429486E-2,-1.4914385E-2],"categories":[],"categories_nodes":[],"categories_segments":[],"categories_sizes":[],"default_left":[0,0,0,0,0,0,0,0,0,0,0,0,0,0,0,0,0,0,0,0,0,0,0,0,0,0,0,0,0,0,0,0,0,0,0,0,0,0,0,0,0,0,0],"id":28,"left_children":[1,3,5,7,9,11,13,15,17,19,21,-1,23,-1,-1,25,27,29,31,33,35,37,39,41,-1,-1,-1,-1,-1,-1,-1,-1,-1,-1,-1,-1,-1,-1,-1,-1,-1,-1,-1],"loss_changes":[9.100895E3,1.4066211E3,2.9427246E1,9.300948E2,3.081543E2,3.8603065E1,4.4189453E-1,4.086317E2,2.4309851E2,4.675285E2,1.1916284E2,0E0,1.2825183E1,0E0,0E0,1.951659E2,5.0619415E2,9.341766E1,3.864864E2,3.1678763E2,8.9311646E1,1.4942627E1,1.4754297E2,3.147316E0,0E0,0E0,0E0,0E0,0E0,0E0,0E0,0E0,0E0,0E0,0E0,0E0,0E0,0E0,0E0,0E0,0E0,0E0,0E0],"parents":[2147483647,0,0,1,1,2,2,3,3,4,4,5,5,6,6,7,7,8,8,9,9,10,10,12,12,15,15,16,16,17,17,18,18,19,19,20,20,21,21,22,22,23,23],"right_children":[2,4,6,8,10,12,14,16,18,20,22,-1,24,-1,-1,26,28,30,32,34,36,38,40,42,-1,-1,-1,-1,-1,-1,-1,-1,-1,-1,-1,-1,-1,-1,-1,-1,-1,-1,-1],"split_conditions":[1.16E2,1E0,1.45E2,5.665966E5,1E0,1.6186464E6,7.708661E5,1E0,2E0,3.3954748E6,-1.66E2,-5.622233E-2,1.01910825E6,-5.7516396E-2,-5.9824534E-2,1.0016263E0,-1.74E2,1E0,2.0033166E0,1E0,5E0,-3.115208E-1,8.1335644E5,4.516527E-1,-5.1412243E-2,-4.907769E-2,4.3941665E-2,7.489688E-2,-2.5017766E-2,2.34509E-2,5.426311E-2,-5.5925447E-2,2.5209783E-2,-1.5660075E-2,6.0676407E-2,5.1678862E-2,1.9178195E-2,7.924124E-2,5.8604278E-2,7.6361904E-3,5.144852E-2,5.2429486E-2,-1.4914385E-2],"split_indices":[33,60,33,2,30,3,9,30,0,27,33,0,4,0,0,23,33,30,11,61,26,19,3,12,0,0,0,0,0,0,0,0,0,0,0,0,0,0,0,0,0,0,0],"split_type":[0,0,0,0,0,0,0,0,0,0,0,0,0,0,0,0,0,0,0,0,0,0,0,0,0,0,0,0,0,0,0,0,0,0,0,0,0,0,0,0,0,0,0],"sum_hessian":[1.3773742E4,9.208073E3,4.5656685E3,3.4813281E3,5.726745E3,5.055719E1,4.5151113E3,1.5767566E3,1.9045715E3,2.3846528E3,3.3420923E3,2.8931173E1,2.1626015E1,3.3987407E3,1.1163704E3,1.018469E3,5.582876E2,1.0640203E3,8.405513E2,8.3381146E2,1.5508416E3,2.4321887E3,9.0990356E2,1.8450548E1,3.1754677E0,9.5931366E2,5.915531E1,1.9282663E2,3.65461E2,3.9131378E2,6.727064E2,1.8832617E2,6.522251E2,6.6399274E2,1.6981868E2,1.2964124E3,2.5442912E2,9.9137436E1,2.3330513E3,2.7615616E2,6.3374744E2,1.695855E1,1.4919975E0],"tree_param":{"num_deleted":"0","num_feature":"78","num_nodes":"43","size_leaf_vector":"1"}},{"base_weights":[2.3116884E-3,5.626514E-1,-1.1442547E0,7.396331E-2,8.604084E-1,-3.4569734E-1,-1.1528392E0,-5.508606E-1,4.6727532E-1,5.8597285E-1,1.0567889E0,-5.561846E-2,6.410761E-1,-5.7093214E-2,-5.9259802E-2,-7.500319E-1,6.462944E-1,9.630481E-2,8.6928064E-1,-8.614814E-3,9.0368944E-1,1.1807117E0,7.354907E-1,9.3020535E-1,-4.9175724E-2,-4.651547E-2,2.70683E-2,-6.264087E-2,4.520046E-2,-1.101564E-2,4.1301396E-2,6.230833E-2,1.0788419E-2,-1.6317561E-2,6.483447E-2,5.0992783E-2,1.5936686E-2,6.581894E-2,5.785052E-2,7.8754425E-3,4.9381003E-2,-4.8663653E-3,5.2245785E-2],"categories":[],"categories_nodes":[],"categories_segments":[],"categories_sizes":[],"default_left":[0,0,0,0,0,0,0,0,0,0,0,0,0,0,0,0,0,0,0,0,0,0,0,0,0,0,0,0,0,0,0,0,0,0,0,0,0,0,0,0,0,0,0],"id":29,"left_children":[1,3,5,7,9,11,13,15,17,19,21,-1,23,-1,-1,25,27,29,31,33,35,37,39,41,-1,-1,-1,-1,-1,-1,-1,-1,-1,-1,-1,-1,-1,-1,-1,-1,-1,-1,-1],"loss_changes":[8.577161E3,1.3048333E3,2.9645508E1,8.3491974E2,2.996958E2,3.705766E1,1.8603516E-1,3.1343594E2,3.108385E2,4.3950922E2,1.2840869E2,0E0,1.1079409E1,0E0,0E0,2.62589E2,9.302363E1,2.5096014E2,2.4614417E2,3.368682E2,1.0271033E2,6.0061035E0,1.3192752E2,2.3275642E0,0E0,0E0,0E0,0E0,0E0,0E0,0E0,0E0,0E0,0E0,0E0,0E0,0E0,0E0,0E0,0E0,0E0,0E0,0E0],"parents":[2147483647,0,0,1,1,2,2,3,3,4,4,5,5,6,6,7,7,8,8,9,9,10,10,12,12,15,15,16,16,17,17,18,18,19,19,20,20,21,21,22,22,23,23],"right_children":[2,4,6,8,10,12,14,16,18,20,22,-1,24,-1,-1,26,28,30,32,34,36,38,40,42,-1,-1,-1,-1,-1,-1,-1,-1,-1,-1,-1,-1,-1,-1,-1,-1,-1,-1,-1],"split_conditions":[1.16E2,1E0,1.45E2,4.3487572E5,1E0,1.6186464E6,7.708661E5,1E0,1E0,3.2932895E6,-1.66E2,-5.561846E-2,1.01910825E6,-5.7093214E-2,-5.9259802E-2,1E0,1.6032325E5,8.557733E6,-1.74E2,1E0,5E0,3.479425E-3,8.1335644E5,6.5424736E-3,-4.9175724E-2,-4.651547E-2,2.70683E-2,-6.264087E-2,4.520046E-2,-1.101564E-2,4.1301396E-2,6.230833E-2,1.0788419E-2,-1.6317561E-2,6.483447E-2,5.0992783E-2,1.5936686E-2,6.581894E-2,5.785052E-2,7.8754425E-3,4.9381003E-2,-4.8663653E-3,5.2245785E-2],"split_indices":[33,60,33,3,30,3,9,36,30,27,33,0,4,0,0,34,28,9,33,62,26,0,3,15,0,0,0,0,0,0,0,0,0,0,0,0,0,0,0,0,0,0,0],"split_type":[0,0,0,0,0,0,0,0,0,0,0,0,0,0,0,0,0,0,0,0,0,0,0,0,0,0,0,0,0,0,0,0,0,0,0,0,0,0,0,0,0,0,0],"sum_hessian":[1.3348357E4,8.966728E3,4.38163E3,3.3953777E3,5.57135E3,4.7041027E1,4.334589E3,1.3115001E3,2.0838777E3,2.325508E3,3.245842E3,2.6401304E1,2.0639725E1,3.2638398E3,1.0707491E3,1.1247485E3,1.8675154E2,1.084417E3,9.994606E2,8.102139E2,1.5152941E3,2.3404636E3,9.053783E2,1.7884272E1,2.755452E0,9.8721436E2,1.3753421E2,2.185318E1,1.6489836E2,7.567646E2,3.2765247E2,6.333154E2,3.6614514E2,6.5220465E2,1.5800931E2,1.2636106E3,2.5168346E2,3.3996268E2,2.000501E3,2.754837E2,6.298946E2,1.811256E0,1.6073015E1],"tree_param":{"num_deleted":"0","num_feature":"78","num_nodes":"43","size_leaf_vector":"1"}},{"base_weights":[3.4111945E-4,5.48852E-1,-1.1350464E0,6.992395E-2,8.451683E-1,-2.988048E-1,-5.72181E-2,-4.6222034E-1,4.9661082E-1,5.753377E-1,1.0404891E0,-5.4936796E-2,5.7358974E-1,-8.306651E-1,1.9471681E-1,4.712823E-2,8.2299346E-1,8.397043E-3,8.876817E-1,1.1717079E0,7.18288E-1,-6.964185E-1,9.522815E-1,-4.701227E-2,4.380363E-2,7.332312E-2,-2.314688E-2,-1.4467425E-2,4.6838228E-2,2.2123132E-3,6.464026E-2,-1.4768819E-2,6.397743E-2,4.5904767E-2,-5.49725E-2,7.550921E-2,5.7787567E-2,8.902577E-3,4.749729E-2,1.1626257E-2,-4.878728E-2,-2.8358757E-2,5.4260083E-2],"categories":[],"categories_nodes":[],"categories_segments":[],"categories_sizes":[],"default_left":[0,0,0,0,0,0,0,0,0,0,0,0,0,0,0,0,0,0,0,0,0,0,0,0,0,0,0,0,0,0,0,0,0,0,0,0,0,0,0,0,0,0,0],"id":30,"left_children":[1,3,5,7,9,11,-1,13,15,17,19,-1,21,23,25,27,29,31,33,35,37,39,41,-1,-1,-1,-1,-1,-1,-1,-1,-1,-1,-1,-1,-1,-1,-1,-1,-1,-1,-1,-1],"loss_changes":[8.076285E3,1.2408396E3,3.256543E1,7.5934467E2,2.8409277E2,3.4052242E1,0E0,3.603948E2,2.72237E2,4.0204987E2,1.3158765E2,0E0,1.1996879E1,1.7918933E2,4.4862875E2,2.342986E2,3.9330396E2,3.122032E2,8.9483765E1,1.0267334E1,1.1359961E2,1.7812717E0,4.3670692E0,0E0,0E0,0E0,0E0,0E0,0E0,0E0,0E0,0E0,0E0,0E0,0E0,0E0,0E0,0E0,0E0,0E0,0E0,0E0,0E0],"parents":[2147483647,0,0,1,1,2,2,3,3,4,4,5,5,7,7,8,8,9,9,10,10,12,12,13,13,14,14,15,15,16,16,17,17,18,18,19,19,20,20,21,21,22,22],"right_children":[2,4,6,8,10,12,-1,14,16,18,20,-1,22,24,26,28,30,32,34,36,38,40,42,-1,-1,-1,-1,-1,-1,-1,-1,-1,-1,-1,-1,-1,-1,-1,-1,-1,-1,-1,-1],"split_conditions":[1.16E2,1E0,1.45E2,5.665966E5,1E0,1.7924071E6,-5.72181E-2,1E0,1E0,3.3954748E6,-1.74E2,-5.4936796E-2,6.5424736E-3,1.0016263E0,-1.74E2,1.0838959E-3,1E0,1E0,1E1,-3.115208E-1,7.95826E5,9.2599056E5,-4.275618E-2,-4.701227E-2,4.380363E-2,7.332312E-2,-2.314688E-2,-1.4467425E-2,4.6838228E-2,2.2123132E-3,6.464026E-2,-1.4768819E-2,6.397743E-2,4.5904767E-2,-5.49725E-2,7.550921E-2,5.7787567E-2,8.902577E-3,4.749729E-2,1.1626257E-2,-4.878728E-2,-2.8358757E-2,5.4260083E-2],"split_indices":[33,60,33,2,30,10,0,30,62,27,33,0,15,23,33,19,61,62,15,19,1,2,19,0,0,0,0,0,0,0,0,0,0,0,0,0,0,0,0,0,0,0,0],"split_type":[0,0,0,0,0,0,0,0,0,0,0,0,0,0,0,0,0,0,0,0,0,0,0,0,0,0,0,0,0,0,0,0,0,0,0,0,0,0,0,0,0,0,0],"sum_hessian":[1.2966276E4,8.743007E3,4.22327E3,3.342251E3,5.4007554E3,4.6892452E1,4.1763774E3,1.4872891E3,1.854962E3,2.2694775E3,3.131278E3,2.4326826E1,2.2565626E1,9.527003E2,5.3458875E2,7.808069E2,1.0741552E3,8.065402E2,1.4629373E3,2.2232192E3,9.080588E2,4.9904103E0,1.7575216E1,8.9564496E2,5.705535E1,1.8180046E2,3.5278827E2,5.6702313E2,2.1378375E2,4.0459827E2,6.695569E2,6.515933E2,1.5494688E2,1.441414E3,2.1523298E1,9.587321E1,2.127346E3,2.7305377E2,6.35005E2,1.1924137E0,3.7979968E0,1.1509751E0,1.642424E1],"tree_param":{"num_deleted":"0","num_feature":"78","num_nodes":"43","size_leaf_vector":"1"}},{"base_weights":[-8.7016856E-4,5.27441E-1,-5.6829114E-2,5.747979E-2,8.236955E-1,-4.6696138E-1,4.6187374E-1,5.5403274E-1,1.0224718E0,-8.0990404E-1,1.2689893E-1,8.585929E-1,3.5696186E-2,1.4536345E-1,9.0733635E-1,1.1594186E0,6.8512386E-1,-4.649147E-2,